{
  "model_type": "DecisionTree",
  "depth": 7,
  "feature_list": [
    "Total length",
    "Protocol",
    "IPV4 Flags (DF)",
    "Time to live",
    "Src Port",
    "Dst Port",
    "TCP flags (Reset)",
    "TCP flags (Syn)"
  ],
  "tree_structure": {
    "value": [
      0.07097233587142812,
      0.021125581735234312,
      0.6798406277004964,
      0.07376704419445868,
      0.1066246228333363,
      0.04766978766504626
    ],
    "name": "Src Port <= 255.5",
    "feature": "Src Port",
    "threshold": "255.5",
    "children": [
      {
        "value": [
          0.17397707876127774,
          0.053609688693814515,
          0.0008290660814435503,
          0.1860521823945379,
          0.40501666260261726,
          0.18051532146630903
        ],
        "name": "Dst Port <= 610.0",
        "feature": "Dst Port",
        "threshold": "610.0",
        "children": [
          {
            "value": [
              0.2415721888295421,
              0.07995808531385076,
              0.0012370653898211349,
              0.27589954058787286,
              0.13210402992242873,
              0.2692290899564844
            ],
            "name": "Total length <= 1389.5",
            "feature": "Total length",
            "threshold": "1389.5",
            "children": [
              {
                "value": [
                  0.3250670417499211,
                  0.1083315806078452,
                  0.0016760437480281838,
                  0.02119702387212115,
                  0.17896203596592702,
                  0.3647662740561573
                ],
                "name": "Dst Port <= 58.5",
                "feature": "Dst Port",
                "threshold": "58.5",
                "children": [
                  {
                    "value": [
                      0.669632145296148,
                      0.2474575019841636,
                      0.0019195629302866425,
                      0.02423448199486886,
                      0.0079181970874324,
                      0.048838110707100535
                    ],
                    "name": "Total length <= 30.5",
                    "feature": "Total length",
                    "threshold": "30.5",
                    "children": [
                      {
                        "value": [
                          0.0,
                          0.0,
                          0.0,
                          0.0004170141784820684,
                          0.0,
                          0.9995829858215179
                        ],
                        "name": "TCP flags (Syn) <= 1.0",
                        "feature": "TCP flags (Syn)",
                        "threshold": "1.0",
                        "children": [
                          {
                            "value": [
                              0.0,
                              0.0,
                              0.0,
                              1.0,
                              0.0,
                              0.0
                            ],
                            "tobedel": 0,
                            "leafcount": [
                              1,
                              0
                            ]
                          },
                          {
                            "value": [
                              0.0,
                              0.0,
                              0.0,
                              0.0,
                              0.0,
                              1.0
                            ],
                            "tobedel": 0,
                            "leafcount": [
                              1,
                              0
                            ]
                          }
                        ],
                        "tobedel": 0,
                        "leafcount": [
                          1,
                          1
                        ]
                      },
                      {
                        "value": [
                          0.7006430930263996,
                          0.2589173635117128,
                          0.002008458701067959,
                          0.025337478998088102,
                          0.008284892141905332,
                          0.004808713620826172
                        ],
                        "name": "Src Port <= 249.5",
                        "feature": "Src Port",
                        "threshold": "249.5",
                        "children": [
                          {
                            "value": [
                              0.6230669630860186,
                              0.3275352405149879,
                              0.0016612513131214423,
                              0.03144162411746024,
                              0.01043168103974788,
                              0.005863239928663914
                            ],
                            "name": "Dst Port <= 28.5",
                            "feature": "Dst Port",
                            "threshold": "28.5",
                            "children": [
                              {
                                "value": [
                                  0.23661626481405804,
                                  0.1148344912137311,
                                  0.027789129546383327,
                                  0.4752758479771148,
                                  0.12300776460972619,
                                  0.022476501838986515
                                ],
                                "tobedel": 0,
                                "leafcount": [
                                  1,
                                  0
                                ]
                              },
                              {
                                "value": [
                                  0.6476381021670218,
                                  0.3410590864210362,
                                  0.0,
                                  0.0032219508392662267,
                                  0.00327391778828665,
                                  0.004806942784389128
                                ],
                                "tobedel": 0,
                                "leafcount": [
                                  1,
                                  0
                                ]
                              }
                            ],
                            "tobedel": 0,
                            "leafcount": [
                              1,
                              1
                            ]
                          },
                          {
                            "value": [
                              0.9933628318584071,
                              0.0,
                              0.00331858407079646,
                              0.0023045722713864306,
                              0.00018436578171091445,
                              0.000829646017699115
                            ],
                            "name": "Time to live <= 50.0",
                            "feature": "Time to live",
                            "threshold": "50.0",
                            "children": [
                              {
                                "value": [
                                  0.1111111111111111,
                                  0.0,
                                  0.0,
                                  0.8888888888888888,
                                  0.0,
                                  0.0
                                ],
                                "tobedel": 0,
                                "leafcount": [
                                  1,
                                  0
                                ]
                              },
                              {
                                "value": [
                                  0.9948291782086796,
                                  0.0,
                                  0.0033240997229916896,
                                  0.0008310249307479224,
                                  0.00018467220683287164,
                                  0.0008310249307479224
                                ],
                                "tobedel": 0,
                                "leafcount": [
                                  1,
                                  0
                                ]
                              }
                            ],
                            "tobedel": 0,
                            "leafcount": [
                              1,
                              1
                            ]
                          }
                        ],
                        "tobedel": 0,
                        "leafcount": [
                          2,
                          2
                        ]
                      }
                    ],
                    "tobedel": 0,
                    "leafcount": [
                      2,
                      4
                    ]
                  },
                  {
                    "value": [
                      0.13450722196702905,
                      0.03138876129229827,
                      0.0015413668146787118,
                      0.019517174501097332,
                      0.27355688256009797,
                      0.5394885928647987
                    ],
                    "name": "Dst Port <= 91.5",
                    "feature": "Dst Port",
                    "threshold": "91.5",
                    "children": [
                      {
                        "value": [
                          0.027543173130675207,
                          0.0035052200583196094,
                          7.554353573964676e-05,
                          0.0017677187363077341,
                          0.2012177617961231,
                          0.7658905827428347
                        ],
                        "name": "Total length <= 110.5",
                        "feature": "Total length",
                        "threshold": "110.5",
                        "children": [
                          {
                            "value": [
                              0.1160868729579089,
                              0.014478826318149786,
                              0.0003203280158882696,
                              0.007495675571785508,
                              0.8529694407072843,
                              0.00864885642898328
                            ],
                            "name": "Time to live <= 88.0",
                            "feature": "Time to live",
                            "threshold": "88.0",
                            "children": [
                              {
                                "value": [
                                  0.013318534961154272,
                                  0.0006659267480577136,
                                  0.0,
                                  0.00029596744358120606,
                                  0.9848316685164632,
                                  0.0008879023307436182
                                ],
                                "tobedel": 0,
                                "leafcount": [
                                  1,
                                  0
                                ]
                              },
                              {
                                "value": [
                                  0.7793696275071633,
                                  0.10362941738299905,
                                  0.002387774594078319,
                                  0.05396370582617001,
                                  0.0019102196752626551,
                                  0.05873925501432665
                                ],
                                "tobedel": 0,
                                "leafcount": [
                                  1,
                                  0
                                ]
                              }
                            ],
                            "tobedel": 0,
                            "leafcount": [
                              1,
                              1
                            ]
                          },
                          {
                            "value": [
                              0.00021748586341887777,
                              0.00011862865277393333,
                              0.0,
                              0.0,
                              7.908576851595555e-05,
                              0.9995847997152912
                            ],
                            "name": "TCP flags (Syn) <= 1.0",
                            "feature": "TCP flags (Syn)",
                            "threshold": "1.0",
                            "children": [
                              {
                                "value": [
                                  0.6470588235294118,
                                  0.35294117647058826,
                                  0.0,
                                  0.0,
                                  0.0,
                                  0.0
                                ],
                                "tobedel": 0,
                                "leafcount": [
                                  1,
                                  0
                                ]
                              },
                              {
                                "value": [
                                  0.0,
                                  0.0,
                                  0.0,
                                  0.0,
                                  7.911235932833607e-05,
                                  0.9999208876406717
                                ],
                                "tobedel": 0,
                                "leafcount": [
                                  1,
                                  0
                                ]
                              }
                            ],
                            "tobedel": 0,
                            "leafcount": [
                              1,
                              1
                            ]
                          }
                        ],
                        "tobedel": 0,
                        "leafcount": [
                          2,
                          2
                        ]
                      },
                      {
                        "value": [
                          0.3572912077537919,
                          0.08946440933979483,
                          0.004594373465919819,
                          0.05648561898168544,
                          0.4242243061237334,
                          0.06794008433507458
                        ],
                        "name": "Total length <= 142.5",
                        "feature": "Total length",
                        "threshold": "142.5",
                        "children": [
                          {
                            "value": [
                              0.15888338116357945,
                              0.07378032872423688,
                              0.004330811374902165,
                              0.04816070962692408,
                              0.6824419514740412,
                              0.0324028176363162
                            ],
                            "name": "Total length <= 117.5",
                            "feature": "Total length",
                            "threshold": "117.5",
                            "children": [
                              {
                                "value": [
                                  0.6201399688958009,
                                  0.36702954898911355,
                                  0.0,
                                  0.0,
                                  0.012441679626749611,
                                  0.00038880248833592535
                                ],
                                "tobedel": 0,
                                "leafcount": [
                                  1,
                                  0
                                ]
                              },
                              {
                                "value": [
                                  0.08738624721268004,
                                  0.028325197372385945,
                                  0.005002109323208582,
                                  0.055625866329174954,
                                  0.7862954257819562,
                                  0.03736515398059423
                                ],
                                "tobedel": 0,
                                "leafcount": [
                                  1,
                                  0
                                ]
                              }
                            ],
                            "tobedel": 0,
                            "leafcount": [
                              1,
                              1
                            ]
                          },
                          {
                            "value": [
                              0.6587647665107429,
                              0.11329580591453263,
                              0.004994846586854832,
                              0.0691350194244034,
                              0.031871878220883214,
                              0.12193768334258305
                            ],
                            "name": "Time to live <= 254.5",
                            "feature": "Time to live",
                            "threshold": "254.5",
                            "children": [
                              {
                                "value": [
                                  0.6805349182763745,
                                  0.1146607231302625,
                                  0.005200594353640416,
                                  0.0714875350833746,
                                  0.03318474492322932,
                                  0.0949314842331187
                                ],
                                "tobedel": 0,
                                "leafcount": [
                                  1,
                                  0
                                ]
                              },
                              {
                                "value": [
                                  0.13026052104208416,
                                  0.08016032064128256,
                                  0.0,
                                  0.012024048096192385,
                                  0.0,
                                  0.7775551102204409
                                ],
                                "tobedel": 0,
                                "leafcount": [
                                  1,
                                  0
                                ]
                              }
                            ],
                            "tobedel": 0,
                            "leafcount": [
                              1,
                              1
                            ]
                          }
                        ],
                        "tobedel": 0,
                        "leafcount": [
                          2,
                          2
                        ]
                      }
                    ],
                    "tobedel": 0,
                    "leafcount": [
                      4,
                      4
                    ]
                  }
                ],
                "tobedel": 0,
                "leafcount": [
                  6,
                  8
                ]
              },
              {
                "value": [
                  0.006279056844912852,
                  0.0,
                  0.0,
                  0.9936653762803535,
                  5.556687473374206e-05,
                  0.0
                ],
                "name": "Time to live <= 64.0",
                "feature": "Time to live",
                "threshold": "64.0",
                "children": [
                  {
                    "value": [
                      0.0011357712072689358,
                      0.0,
                      0.0,
                      0.9988642287927311,
                      0.0,
                      0.0
                    ],
                    "name": "Src Port <= 95.0",
                    "feature": "Src Port",
                    "threshold": "95.0",
                    "children": [
                      {
                        "value": [
                          0.7023809523809523,
                          0.0,
                          0.0,
                          0.2976190476190476,
                          0.0,
                          0.0
                        ],
                        "name": "Src Port <= 30.5",
                        "feature": "Src Port",
                        "threshold": "30.5",
                        "children": [
                          {
                            "value": [
                              0.0,
                              0.0,
                              0.0,
                              1.0,
                              0.0,
                              0.0
                            ],
                            "tobedel": 0,
                            "leafcount": [
                              1,
                              0
                            ]
                          },
                          {
                            "value": [
                              0.9833333333333333,
                              0.0,
                              0.0,
                              0.016666666666666666,
                              0.0,
                              0.0
                            ],
                            "name": "Src Port <= 63.5",
                            "feature": "Src Port",
                            "threshold": "63.5",
                            "tobedel": 1,
                            "leafcount": [
                              1,
                              1
                            ]
                          }
                        ],
                        "tobedel": 0,
                        "leafcount": [
                          1,
                          2
                        ]
                      },
                      {
                        "value": [
                          3.7296732806206175e-05,
                          0.0,
                          0.0,
                          0.9999627032671938,
                          0.0,
                          0.0
                        ],
                        "name": "Time to live <= 43.5",
                        "feature": "Time to live",
                        "threshold": "43.5",
                        "children": [
                          {
                            "value": [
                              0.2,
                              0.0,
                              0.0,
                              0.8,
                              0.0,
                              0.0
                            ],
                            "name": "Time to live <= 38.0",
                            "feature": "Time to live",
                            "threshold": "38.0",
                            "children": [
                              {
                                "value": [
                                  0.0,
                                  0.0,
                                  0.0,
                                  1.0,
                                  0.0,
                                  0.0
                                ],
                                "tobedel": 0,
                                "leafcount": [
                                  1,
                                  0
                                ]
                              },
                              {
                                "value": [
                                  1.0,
                                  0.0,
                                  0.0,
                                  0.0,
                                  0.0,
                                  0.0
                                ],
                                "tobedel": 0,
                                "leafcount": [
                                  1,
                                  0
                                ]
                              }
                            ],
                            "tobedel": 0,
                            "leafcount": [
                              1,
                              1
                            ]
                          },
                          {
                            "value": [
                              0.0,
                              0.0,
                              0.0,
                              1.0,
                              0.0,
                              0.0
                            ],
                            "tobedel": 0,
                            "leafcount": [
                              1,
                              0
                            ]
                          }
                        ],
                        "tobedel": 0,
                        "leafcount": [
                          2,
                          1
                        ]
                      }
                    ],
                    "tobedel": 0,
                    "leafcount": [
                      3,
                      3
                    ]
                  },
                  {
                    "value": [
                      0.9893238434163701,
                      0.0,
                      0.0,
                      0.0,
                      0.010676156583629894,
                      0.0
                    ],
                    "name": "Time to live <= 102.0",
                    "feature": "Time to live",
                    "threshold": "102.0",
                    "children": [
                      {
                        "value": [
                          0.4,
                          0.0,
                          0.0,
                          0.0,
                          0.6,
                          0.0
                        ],
                        "name": "Src Port <= 45.0",
                        "feature": "Src Port",
                        "threshold": "45.0",
                        "children": [
                          {
                            "value": [
                              1.0,
                              0.0,
                              0.0,
                              0.0,
                              0.0,
                              0.0
                            ],
                            "tobedel": 0,
                            "leafcount": [
                              1,
                              0
                            ]
                          },
                          {
                            "value": [
                              0.0,
                              0.0,
                              0.0,
                              0.0,
                              1.0,
                              0.0
                            ],
                            "tobedel": 0,
                            "leafcount": [
                              1,
                              0
                            ]
                          }
                        ],
                        "tobedel": 0,
                        "leafcount": [
                          1,
                          1
                        ]
                      },
                      {
                        "value": [
                          1.0,
                          0.0,
                          0.0,
                          0.0,
                          0.0,
                          0.0
                        ],
                        "tobedel": 0,
                        "leafcount": [
                          1,
                          0
                        ]
                      }
                    ],
                    "tobedel": 0,
                    "leafcount": [
                      2,
                      1
                    ]
                  }
                ],
                "tobedel": 0,
                "leafcount": [
                  6,
                  3
                ]
              }
            ],
            "tobedel": 0,
            "leafcount": [
              14,
              9
            ]
          },
          {
            "value": [
              0.03662191202854833,
              6.90049486406025e-05,
              0.0,
              0.0034798209814475268,
              0.9595828157962185,
              0.000246446245145009
            ],
            "name": "Total length <= 1210.5",
            "feature": "Total length",
            "threshold": "1210.5",
            "children": [
              {
                "value": [
                  0.007330899896001142,
                  7.13717653296356e-05,
                  0.0,
                  9.176369828096005e-05,
                  0.9924957686739126,
                  1.0195966475662228e-05
                ],
                "name": "Time to live <= 59.5",
                "feature": "Time to live",
                "threshold": "59.5",
                "children": [
                  {
                    "value": [
                      0.9709302325581395,
                      0.023255813953488372,
                      0.0,
                      0.0,
                      0.0,
                      0.005813953488372093
                    ],
                    "name": "Total length <= 703.5",
                    "feature": "Total length",
                    "threshold": "703.5",
                    "children": [
                      {
                        "value": [
                          0.3333333333333333,
                          0.6666666666666666,
                          0.0,
                          0.0,
                          0.0,
                          0.0
                        ],
                        "name": "Total length <= 669.0",
                        "feature": "Total length",
                        "threshold": "669.0",
                        "children": [
                          {
                            "value": [
                              1.0,
                              0.0,
                              0.0,
                              0.0,
                              0.0,
                              0.0
                            ],
                            "tobedel": 0,
                            "leafcount": [
                              1,
                              0
                            ]
                          },
                          {
                            "value": [
                              0.2,
                              0.8,
                              0.0,
                              0.0,
                              0.0,
                              0.0
                            ],
                            "tobedel": 0,
                            "leafcount": [
                              1,
                              0
                            ]
                          }
                        ],
                        "tobedel": 0,
                        "leafcount": [
                          1,
                          1
                        ]
                      },
                      {
                        "value": [
                          0.9939759036144579,
                          0.0,
                          0.0,
                          0.0,
                          0.0,
                          0.006024096385542169
                        ],
                        "name": "Total length <= 1099.0",
                        "feature": "Total length",
                        "threshold": "1099.0",
                        "children": [
                          {
                            "value": [
                              1.0,
                              0.0,
                              0.0,
                              0.0,
                              0.0,
                              0.0
                            ],
                            "tobedel": 0,
                            "leafcount": [
                              1,
                              0
                            ]
                          },
                          {
                            "value": [
                              0.8333333333333334,
                              0.0,
                              0.0,
                              0.0,
                              0.0,
                              0.16666666666666666
                            ],
                            "name": "Dst Port <= 1088.5",
                            "feature": "Dst Port",
                            "threshold": "1088.5",
                            "children": [
                              {
                                "value": [
                                  0.0,
                                  0.0,
                                  0.0,
                                  0.0,
                                  0.0,
                                  1.0
                                ],
                                "tobedel": 0,
                                "leafcount": [
                                  1,
                                  0
                                ]
                              },
                              {
                                "value": [
                                  1.0,
                                  0.0,
                                  0.0,
                                  0.0,
                                  0.0,
                                  0.0
                                ],
                                "tobedel": 0,
                                "leafcount": [
                                  1,
                                  0
                                ]
                              }
                            ],
                            "tobedel": 0,
                            "leafcount": [
                              1,
                              1
                            ]
                          }
                        ],
                        "tobedel": 0,
                        "leafcount": [
                          1,
                          2
                        ]
                      }
                    ],
                    "tobedel": 0,
                    "leafcount": [
                      2,
                      3
                    ]
                  },
                  {
                    "value": [
                      0.005638060997283108,
                      3.0641635854799505e-05,
                      0.0,
                      9.192490756439851e-05,
                      0.9942393724592977,
                      0.0
                    ],
                    "name": "Dst Port <= 1044.5",
                    "feature": "Dst Port",
                    "threshold": "1044.5",
                    "children": [
                      {
                        "value": [
                          0.08167770419426049,
                          0.0005094243504839531,
                          0.0,
                          0.0015282730514518594,
                          0.9162845984038037,
                          0.0
                        ],
                        "name": "Time to live <= 85.5",
                        "feature": "Time to live",
                        "threshold": "85.5",
                        "tobedel": 1,
                        "leafcount": [
                          1,
                          2
                        ]
                      },
                      {
                        "value": [
                          0.0007715965528108937,
                          0.0,
                          0.0,
                          0.0,
                          0.9992284034471891,
                          0.0
                        ],
                        "name": "Time to live <= 191.5",
                        "feature": "Time to live",
                        "threshold": "191.5",
                        "children": [
                          {
                            "value": [
                              0.0007281579776770673,
                              0.0,
                              0.0,
                              0.0,
                              0.9992718420223229,
                              0.0
                            ],
                            "name": "Time to live <= 96.0",
                            "feature": "Time to live",
                            "threshold": "96.0",
                            "tobedel": 1,
                            "leafcount": [
                              1,
                              1
                            ]
                          },
                          {
                            "value": [
                              1.0,
                              0.0,
                              0.0,
                              0.0,
                              0.0,
                              0.0
                            ],
                            "tobedel": 0,
                            "leafcount": [
                              1,
                              0
                            ]
                          }
                        ],
                        "tobedel": 0,
                        "leafcount": [
                          2,
                          1
                        ]
                      }
                    ],
                    "tobedel": 0,
                    "leafcount": [
                      3,
                      3
                    ]
                  }
                ],
                "tobedel": 0,
                "leafcount": [
                  5,
                  6
                ]
              },
              {
                "value": [
                  0.8906064209274673,
                  0.0,
                  0.0,
                  0.10225921521997622,
                  0.0,
                  0.007134363852556481
                ],
                "name": "Dst Port <= 1434.0",
                "feature": "Dst Port",
                "threshold": "1434.0",
                "children": [
                  {
                    "value": [
                      0.9920529801324504,
                      0.0,
                      0.0,
                      0.0,
                      0.0,
                      0.007947019867549669
                    ],
                    "name": "Time to live <= 49.0",
                    "feature": "Time to live",
                    "threshold": "49.0",
                    "tobedel": 1,
                    "leafcount": [
                      2,
                      3
                    ]
                  },
                  {
                    "value": [
                      0.0,
                      0.0,
                      0.0,
                      1.0,
                      0.0,
                      0.0
                    ],
                    "tobedel": 0,
                    "leafcount": [
                      1,
                      0
                    ]
                  }
                ],
                "tobedel": 0,
                "leafcount": [
                  5,
                  1
                ]
              }
            ],
            "tobedel": 0,
            "leafcount": [
              11,
              6
            ]
          }
        ],
        "tobedel": 0,
        "leafcount": [
          23,
          17
        ]
      },
      {
        "value": [
          0.034526948367176964,
          0.009631976366974503,
          0.9200901423227178,
          0.0340380447536616,
          0.0010468289136446672,
          0.0006660592758244641
        ],
        "name": "Src Port <= 32921.5",
        "feature": "Src Port",
        "threshold": "32921.5",
        "children": [
          {
            "value": [
              0.024789101857096013,
              0.007354457924702656,
              0.953670969088145,
              0.012458938206098906,
              0.001085044862431812,
              0.0006414880615256208
            ],
            "name": "Time to live <= 126.0",
            "feature": "Time to live",
            "threshold": "126.0",
            "children": [
              {
                "value": [
                  0.5862068965517241,
                  0.2920689655172414,
                  0.0,
                  0.041862068965517245,
                  0.06193103448275862,
                  0.01793103448275862
                ],
                "name": "Src Port <= 368.0",
                "feature": "Src Port",
                "threshold": "368.0",
                "children": [
                  {
                    "value": [
                      0.15858585858585858,
                      0.7724747474747474,
                      0.0,
                      0.010858585858585859,
                      0.012121212121212121,
                      0.04595959595959596
                    ],
                    "name": "Time to live <= 47.5",
                    "feature": "Time to live",
                    "threshold": "47.5",
                    "children": [
                      {
                        "value": [
                          0.02776044915782907,
                          0.9532127261384903,
                          0.0,
                          0.0028072364316905803,
                          0.002183406113537118,
                          0.014036182158452901
                        ],
                        "name": "Time to live <= 44.5",
                        "feature": "Time to live",
                        "threshold": "44.5",
                        "children": [
                          {
                            "value": [
                              0.025407166123778503,
                              0.9693811074918567,
                              0.0,
                              0.002280130293159609,
                              0.0,
                              0.0029315960912052116
                            ],
                            "name": "Time to live <= 40.5",
                            "feature": "Time to live",
                            "threshold": "40.5",
                            "children": [
                              {
                                "value": [
                                  0.125,
                                  0.0,
                                  0.0,
                                  0.875,
                                  0.0,
                                  0.0
                                ],
                                "tobedel": 0,
                                "leafcount": [
                                  1,
                                  0
                                ]
                              },
                              {
                                "value": [
                                  0.025146962769431742,
                                  0.9719137818419333,
                                  0.0,
                                  0.0,
                                  0.0,
                                  0.002939255388634879
                                ],
                                "tobedel": 0,
                                "leafcount": [
                                  1,
                                  0
                                ]
                              }
                            ],
                            "tobedel": 0,
                            "leafcount": [
                              1,
                              1
                            ]
                          },
                          {
                            "value": [
                              0.08088235294117647,
                              0.5882352941176471,
                              0.0,
                              0.014705882352941176,
                              0.051470588235294115,
                              0.2647058823529412
                            ],
                            "name": "Total length <= 1023.5",
                            "feature": "Total length",
                            "threshold": "1023.5",
                            "children": [
                              {
                                "value": [
                                  0.15714285714285714,
                                  0.2857142857142857,
                                  0.0,
                                  0.02857142857142857,
                                  0.1,
                                  0.42857142857142855
                                ],
                                "tobedel": 0,
                                "leafcount": [
                                  1,
                                  0
                                ]
                              },
                              {
                                "value": [
                                  0.0,
                                  0.9090909090909091,
                                  0.0,
                                  0.0,
                                  0.0,
                                  0.09090909090909091
                                ],
                                "tobedel": 0,
                                "leafcount": [
                                  1,
                                  0
                                ]
                              }
                            ],
                            "tobedel": 0,
                            "leafcount": [
                              1,
                              1
                            ]
                          }
                        ],
                        "tobedel": 0,
                        "leafcount": [
                          2,
                          2
                        ]
                      },
                      {
                        "value": [
                          0.7148541114058355,
                          0.003978779840848806,
                          0.0,
                          0.04509283819628647,
                          0.054376657824933686,
                          0.1816976127320955
                        ],
                        "name": "Time to live <= 59.5",
                        "feature": "Time to live",
                        "threshold": "59.5",
                        "children": [
                          {
                            "value": [
                              0.804953560371517,
                              0.0046439628482972135,
                              0.0,
                              0.0,
                              0.01393188854489164,
                              0.17647058823529413
                            ],
                            "name": "Src Port <= 355.0",
                            "feature": "Src Port",
                            "threshold": "355.0",
                            "tobedel": 1,
                            "leafcount": [
                              1,
                              1
                            ]
                          },
                          {
                            "value": [
                              0.17592592592592593,
                              0.0,
                              0.0,
                              0.3148148148148148,
                              0.2962962962962963,
                              0.21296296296296297
                            ],
                            "name": "Src Port <= 266.0",
                            "feature": "Src Port",
                            "threshold": "266.0",
                            "children": [
                              {
                                "value": [
                                  0.25,
                                  0.0,
                                  0.0,
                                  0.4473684210526316,
                                  0.0,
                                  0.3026315789473684
                                ],
                                "tobedel": 0,
                                "leafcount": [
                                  1,
                                  0
                                ]
                              },
                              {
                                "value": [
                                  0.0,
                                  0.0,
                                  0.0,
                                  0.0,
                                  1.0,
                                  0.0
                                ],
                                "tobedel": 0,
                                "leafcount": [
                                  1,
                                  0
                                ]
                              }
                            ],
                            "tobedel": 0,
                            "leafcount": [
                              1,
                              1
                            ]
                          }
                        ],
                        "tobedel": 0,
                        "leafcount": [
                          2,
                          2
                        ]
                      }
                    ],
                    "tobedel": 0,
                    "leafcount": [
                      4,
                      4
                    ]
                  },
                  {
                    "value": [
                      0.7468690702087286,
                      0.11157495256166983,
                      0.0,
                      0.05351043643263757,
                      0.08064516129032258,
                      0.007400379506641366
                    ],
                    "name": "Src Port <= 17821.0",
                    "feature": "Src Port",
                    "threshold": "17821.0",
                    "children": [
                      {
                        "value": [
                          0.8362327534493101,
                          0.006838632273545291,
                          0.0,
                          0.05098980203959208,
                          0.09922015596880623,
                          0.006718656268746251
                        ],
                        "name": "Time to live <= 119.5",
                        "feature": "Time to live",
                        "threshold": "119.5",
                        "children": [
                          {
                            "value": [
                              0.8613147756928048,
                              0.0070833851124642725,
                              0.0,
                              0.02522679259351311,
                              0.10277121908785883,
                              0.003603827513359016
                            ],
                            "name": "Total length <= 1479.5",
                            "feature": "Total length",
                            "threshold": "1479.5",
                            "children": [
                              {
                                "value": [
                                  0.8723725613593455,
                                  0.007174323473882945,
                                  0.0,
                                  0.02555066079295154,
                                  0.09125235997482693,
                                  0.0036500943989930773
                                ],
                                "tobedel": 0,
                                "leafcount": [
                                  1,
                                  0
                                ]
                              },
                              {
                                "value": [
                                  0.0,
                                  0.0,
                                  0.0,
                                  0.0,
                                  1.0,
                                  0.0
                                ],
                                "tobedel": 0,
                                "leafcount": [
                                  1,
                                  0
                                ]
                              }
                            ],
                            "tobedel": 0,
                            "leafcount": [
                              1,
                              1
                            ]
                          },
                          {
                            "value": [
                              0.13541666666666666,
                              0.0,
                              0.0,
                              0.7708333333333334,
                              0.0,
                              0.09375
                            ],
                            "name": "Total length <= 236.5",
                            "feature": "Total length",
                            "threshold": "236.5",
                            "tobedel": 1,
                            "leafcount": [
                              1,
                              1
                            ]
                          }
                        ],
                        "tobedel": 0,
                        "leafcount": [
                          2,
                          2
                        ]
                      },
                      {
                        "value": [
                          0.4090702947845805,
                          0.507482993197279,
                          0.0,
                          0.06303854875283446,
                          0.010430839002267574,
                          0.009977324263038548
                        ],
                        "name": "Src Port <= 32171.0",
                        "feature": "Src Port",
                        "threshold": "32171.0",
                        "children": [
                          {
                            "value": [
                              0.007177033492822967,
                              0.8556618819776715,
                              0.0,
                              0.11084529505582137,
                              0.018341307814992026,
                              0.007974481658692184
                            ],
                            "name": "Time to live <= 58.0",
                            "feature": "Time to live",
                            "threshold": "58.0",
                            "children": [
                              {
                                "value": [
                                  0.056962025316455694,
                                  0.0,
                                  0.0,
                                  0.879746835443038,
                                  0.0,
                                  0.06329113924050633
                                ],
                                "tobedel": 0,
                                "leafcount": [
                                  1,
                                  0
                                ]
                              },
                              {
                                "value": [
                                  0.0,
                                  0.9790145985401459,
                                  0.0,
                                  0.0,
                                  0.020985401459854013,
                                  0.0
                                ],
                                "tobedel": 0,
                                "leafcount": [
                                  1,
                                  0
                                ]
                              }
                            ],
                            "tobedel": 0,
                            "leafcount": [
                              1,
                              1
                            ]
                          },
                          {
                            "value": [
                              0.9390115667718192,
                              0.048370136698212406,
                              0.0,
                              0.0,
                              0.0,
                              0.012618296529968454
                            ],
                            "name": "Total length <= 512.0",
                            "feature": "Total length",
                            "threshold": "512.0",
                            "tobedel": 1,
                            "leafcount": [
                              1,
                              1
                            ]
                          }
                        ],
                        "tobedel": 0,
                        "leafcount": [
                          2,
                          2
                        ]
                      }
                    ],
                    "tobedel": 0,
                    "leafcount": [
                      4,
                      4
                    ]
                  }
                ],
                "tobedel": 0,
                "leafcount": [
                  8,
                  8
                ]
              },
              {
                "value": [
                  0.014911881578548246,
                  0.002345375678709012,
                  0.9704492371159038,
                  0.011941638608305275,
                  1.456001456001456e-05,
                  0.00033730700397367064
                ],
                "name": "Total length <= 1444.0",
                "feature": "Total length",
                "threshold": "1444.0",
                "children": [
                  {
                    "value": [
                      0.03878181049122785,
                      0.0061016799348480736,
                      0.9231813332154875,
                      0.0310387060524372,
                      3.7879027014059434e-05,
                      0.0008585912789853471
                    ],
                    "name": "Src Port <= 24302.0",
                    "feature": "Src Port",
                    "threshold": "24302.0",
                    "children": [
                      {
                        "value": [
                          0.20247619047619048,
                          0.03265800865800866,
                          0.6023030303030303,
                          0.15781818181818183,
                          0.0002077922077922078,
                          0.004536796536796537
                        ],
                        "name": "Src Port <= 16198.0",
                        "feature": "Src Port",
                        "threshold": "16198.0",
                        "children": [
                          {
                            "value": [
                              0.1714441643493854,
                              0.0012474336651160374,
                              0.8056862184568206,
                              0.016918319083136256,
                              0.00031185841627900935,
                              0.004392006029262715
                            ],
                            "name": "Total length <= 577.0",
                            "feature": "Total length",
                            "threshold": "577.0",
                            "tobedel": 1,
                            "leafcount": [
                              1,
                              1
                            ]
                          },
                          {
                            "value": [
                              0.26443879404286236,
                              0.09537647241969799,
                              0.19620154636500442,
                              0.4391572829640392,
                              0.0,
                              0.0048259042083960355
                            ],
                            "name": "Src Port <= 16531.0",
                            "feature": "Src Port",
                            "threshold": "16531.0",
                            "children": [
                              {
                                "value": [
                                  0.623455684870188,
                                  0.29400179051029546,
                                  0.02990152193375112,
                                  0.04637421665174575,
                                  0.0,
                                  0.006266786034019696
                                ],
                                "tobedel": 0,
                                "leafcount": [
                                  1,
                                  0
                                ]
                              },
                              {
                                "value": [
                                  0.1179307321350285,
                                  0.014321204150226509,
                                  0.2640654683618296,
                                  0.5994446880023382,
                                  0.0,
                                  0.004237907350577232
                                ],
                                "tobedel": 0,
                                "leafcount": [
                                  1,
                                  0
                                ]
                              }
                            ],
                            "tobedel": 0,
                            "leafcount": [
                              1,
                              1
                            ]
                          }
                        ],
                        "tobedel": 0,
                        "leafcount": [
                          2,
                          2
                        ]
                      },
                      {
                        "value": [
                          0.00228915104536611,
                          0.00018143355671535778,
                          0.9947152651246101,
                          0.0027755473889008986,
                          0.0,
                          3.860288440752293e-05
                        ],
                        "name": "Total length <= 107.5",
                        "feature": "Total length",
                        "threshold": "107.5",
                        "children": [
                          {
                            "value": [
                              0.001259903381642512,
                              0.00010434782608695653,
                              0.9958376811594203,
                              0.002778743961352657,
                              0.0,
                              1.932367149758454e-05
                            ],
                            "name": "Src Port <= 32738.0",
                            "feature": "Src Port",
                            "threshold": "32738.0",
                            "tobedel": 1,
                            "leafcount": [
                              1,
                              1
                            ]
                          },
                          {
                            "value": [
                              0.8959731543624161,
                              0.06711409395973154,
                              0.020134228187919462,
                              0.0,
                              0.0,
                              0.016778523489932886
                            ],
                            "name": "Src Port <= 32759.5",
                            "feature": "Src Port",
                            "threshold": "32759.5",
                            "tobedel": 1,
                            "leafcount": [
                              1,
                              1
                            ]
                          }
                        ],
                        "tobedel": 0,
                        "leafcount": [
                          2,
                          2
                        ]
                      }
                    ],
                    "tobedel": 0,
                    "leafcount": [
                      4,
                      4
                    ]
                  },
                  {
                    "value": [
                      7.883684124428186e-06,
                      0.0,
                      0.999962552500409,
                      1.773828927996342e-05,
                      0.0,
                      1.182552618664228e-05
                    ],
                    "name": "Total length <= 1739.0",
                    "feature": "Total length",
                    "threshold": "1739.0",
                    "children": [
                      {
                        "value": [
                          0.0,
                          0.0,
                          0.9999704359514597,
                          1.77384291241355e-05,
                          0.0,
                          1.1825619416090332e-05
                        ],
                        "name": "Total length <= 1496.0",
                        "feature": "Total length",
                        "threshold": "1496.0",
                        "tobedel": 1,
                        "leafcount": [
                          1,
                          1
                        ]
                      },
                      {
                        "value": [
                          1.0,
                          0.0,
                          0.0,
                          0.0,
                          0.0,
                          0.0
                        ],
                        "tobedel": 0,
                        "leafcount": [
                          1,
                          0
                        ]
                      }
                    ],
                    "tobedel": 0,
                    "leafcount": [
                      2,
                      1
                    ]
                  }
                ],
                "tobedel": 0,
                "leafcount": [
                  8,
                  3
                ]
              }
            ],
            "tobedel": 0,
            "leafcount": [
              16,
              11
            ]
          },
          {
            "value": [
              0.30127053597674497,
              0.07201881307770193,
              0.00022863115262762517,
              0.6251428944703923,
              0.0,
              0.0013391253225332332
            ],
            "name": "Total length <= 76.5",
            "feature": "Total length",
            "threshold": "76.5",
            "children": [
              {
                "value": [
                  0.16299164458936213,
                  0.05681679233747707,
                  0.0002853067047075606,
                  0.7784389647442429,
                  0.0,
                  0.0014672916242103118
                ],
                "name": "Time to live <= 126.0",
                "feature": "Time to live",
                "threshold": "126.0",
                "children": [
                  {
                    "value": [
                      0.4511993382961125,
                      0.5310173697270472,
                      0.0,
                      0.007857733664185277,
                      0.0,
                      0.009925558312655087
                    ],
                    "name": "Time to live <= 81.0",
                    "feature": "Time to live",
                    "threshold": "81.0",
                    "children": [
                      {
                        "value": [
                          0.04145077720207254,
                          0.9474463360473723,
                          0.0,
                          0.0022205773501110288,
                          0.0,
                          0.008882309400444115
                        ],
                        "name": "Time to live <= 60.0",
                        "feature": "Time to live",
                        "threshold": "60.0",
                        "children": [
                          {
                            "value": [
                              0.45901639344262296,
                              0.4180327868852459,
                              0.0,
                              0.02459016393442623,
                              0.0,
                              0.09836065573770492
                            ],
                            "name": "Time to live <= 46.5",
                            "feature": "Time to live",
                            "threshold": "46.5",
                            "children": [
                              {
                                "value": [
                                  0.13114754098360656,
                                  0.8032786885245902,
                                  0.0,
                                  0.0,
                                  0.0,
                                  0.06557377049180328
                                ],
                                "tobedel": 0,
                                "leafcount": [
                                  1,
                                  0
                                ]
                              },
                              {
                                "value": [
                                  0.7868852459016393,
                                  0.03278688524590164,
                                  0.0,
                                  0.04918032786885246,
                                  0.0,
                                  0.13114754098360656
                                ],
                                "tobedel": 0,
                                "leafcount": [
                                  1,
                                  0
                                ]
                              }
                            ],
                            "tobedel": 0,
                            "leafcount": [
                              1,
                              1
                            ]
                          },
                          {
                            "value": [
                              0.0,
                              1.0,
                              0.0,
                              0.0,
                              0.0,
                              0.0
                            ],
                            "tobedel": 0,
                            "leafcount": [
                              1,
                              0
                            ]
                          }
                        ],
                        "tobedel": 0,
                        "leafcount": [
                          2,
                          1
                        ]
                      },
                      {
                        "value": [
                          0.9700093720712277,
                          0.0037488284910965324,
                          0.0,
                          0.01499531396438613,
                          0.0,
                          0.011246485473289597
                        ],
                        "name": "TCP flags (Reset) <= 1.5",
                        "feature": "TCP flags (Reset)",
                        "threshold": "1.5",
                        "children": [
                          {
                            "value": [
                              0.9923298178331735,
                              0.003835091083413231,
                              0.0,
                              0.0028763183125599234,
                              0.0,
                              0.0009587727708533077
                            ],
                            "name": "Src Port <= 64875.5",
                            "feature": "Src Port",
                            "threshold": "64875.5",
                            "tobedel": 1,
                            "leafcount": [
                              1,
                              1
                            ]
                          },
                          {
                            "value": [
                              0.0,
                              0.0,
                              0.0,
                              0.5416666666666666,
                              0.0,
                              0.4583333333333333
                            ],
                            "name": "Src Port <= 65488.5",
                            "feature": "Src Port",
                            "threshold": "65488.5",
                            "children": [
                              {
                                "value": [
                                  0.0,
                                  0.0,
                                  0.0,
                                  1.0,
                                  0.0,
                                  0.0
                                ],
                                "tobedel": 0,
                                "leafcount": [
                                  1,
                                  0
                                ]
                              },
                              {
                                "value": [
                                  0.0,
                                  0.0,
                                  0.0,
                                  0.42105263157894735,
                                  0.0,
                                  0.5789473684210527
                                ],
                                "tobedel": 0,
                                "leafcount": [
                                  1,
                                  0
                                ]
                              }
                            ],
                            "tobedel": 0,
                            "leafcount": [
                              1,
                              1
                            ]
                          }
                        ],
                        "tobedel": 0,
                        "leafcount": [
                          2,
                          2
                        ]
                      }
                    ],
                    "tobedel": 0,
                    "leafcount": [
                      3,
                      4
                    ]
                  },
                  {
                    "value": [
                      0.13148256996880228,
                      0.004973549758104626,
                      0.00031649862097029435,
                      0.8626848125876023,
                      0.0,
                      0.0005425690645205046
                    ],
                    "name": "Src Port <= 65470.0",
                    "feature": "Src Port",
                    "threshold": "65470.0",
                    "children": [
                      {
                        "value": [
                          0.29652605459057074,
                          0.009615384615384616,
                          0.0,
                          0.6927212572373863,
                          0.0,
                          0.0011373035566583955
                        ],
                        "name": "Src Port <= 63452.0",
                        "feature": "Src Port",
                        "threshold": "63452.0",
                        "children": [
                          {
                            "value": [
                              0.0017747660535656663,
                              0.0,
                              0.0,
                              0.9982252339464344,
                              0.0,
                              0.0
                            ],
                            "name": "Time to live <= 184.5",
                            "feature": "Time to live",
                            "threshold": "184.5",
                            "children": [
                              {
                                "value": [
                                  0.0,
                                  0.0,
                                  0.0,
                                  1.0,
                                  0.0,
                                  0.0
                                ],
                                "tobedel": 0,
                                "leafcount": [
                                  1,
                                  0
                                ]
                              },
                              {
                                "value": [
                                  1.0,
                                  0.0,
                                  0.0,
                                  0.0,
                                  0.0,
                                  0.0
                                ],
                                "tobedel": 0,
                                "leafcount": [
                                  1,
                                  0
                                ]
                              }
                            ],
                            "tobedel": 0,
                            "leafcount": [
                              1,
                              1
                            ]
                          },
                          {
                            "value": [
                              0.8223949337938975,
                              0.02677029360967185,
                              0.0,
                              0.14766839378238342,
                              0.0,
                              0.0031663788140472078
                            ],
                            "name": "Src Port <= 64968.5",
                            "feature": "Src Port",
                            "threshold": "64968.5",
                            "children": [
                              {
                                "value": [
                                  0.8832185347526612,
                                  0.0,
                                  0.0,
                                  0.11333750782717596,
                                  0.0,
                                  0.0034439574201628053
                                ],
                                "tobedel": 0,
                                "leafcount": [
                                  1,
                                  0
                                ]
                              },
                              {
                                "value": [
                                  0.12857142857142856,
                                  0.33214285714285713,
                                  0.0,
                                  0.5392857142857143,
                                  0.0,
                                  0.0
                                ],
                                "tobedel": 0,
                                "leafcount": [
                                  1,
                                  0
                                ]
                              }
                            ],
                            "tobedel": 0,
                            "leafcount": [
                              1,
                              1
                            ]
                          }
                        ],
                        "tobedel": 0,
                        "leafcount": [
                          2,
                          2
                        ]
                      },
                      {
                        "value": [
                          0.0032141422257934912,
                          0.001366010445962234,
                          0.000562474889513861,
                          0.9947770188830856,
                          0.0,
                          8.035355564483728e-05
                        ],
                        "name": "Src Port <= 65505.0",
                        "feature": "Src Port",
                        "threshold": "65505.0",
                        "children": [
                          {
                            "value": [
                              0.0004033233846898443,
                              0.0010486408001935952,
                              0.0,
                              0.9985480358151165,
                              0.0,
                              0.0
                            ],
                            "name": "Total length <= 46.0",
                            "feature": "Total length",
                            "threshold": "46.0",
                            "tobedel": 1,
                            "leafcount": [
                              1,
                              1
                            ]
                          },
                          {
                            "value": [
                              0.7291666666666666,
                              0.08333333333333333,
                              0.14583333333333334,
                              0.020833333333333332,
                              0.0,
                              0.020833333333333332
                            ],
                            "name": "Time to live <= 229.0",
                            "feature": "Time to live",
                            "threshold": "229.0",
                            "tobedel": 1,
                            "leafcount": [
                              1,
                              1
                            ]
                          }
                        ],
                        "tobedel": 0,
                        "leafcount": [
                          2,
                          2
                        ]
                      }
                    ],
                    "tobedel": 0,
                    "leafcount": [
                      4,
                      4
                    ]
                  }
                ],
                "tobedel": 0,
                "leafcount": [
                  7,
                  8
                ]
              },
              {
                "value": [
                  0.8590924038145347,
                  0.1333442946399211,
                  0.0,
                  0.0067412035514633345,
                  0.0,
                  0.0008220979940808945
                ],
                "name": "Src Port <= 65139.5",
                "feature": "Src Port",
                "threshold": "65139.5",
                "children": [
                  {
                    "value": [
                      0.9847549208799691,
                      0.009262832883056734,
                      0.0,
                      0.005403319181783096,
                      0.0,
                      0.0005789270551910459
                    ],
                    "name": "Time to live <= 85.5",
                    "feature": "Time to live",
                    "threshold": "85.5",
                    "children": [
                      {
                        "value": [
                          0.0,
                          1.0,
                          0.0,
                          0.0,
                          0.0,
                          0.0
                        ],
                        "tobedel": 0,
                        "leafcount": [
                          1,
                          0
                        ]
                      },
                      {
                        "value": [
                          0.9939618231398519,
                          0.0,
                          0.0,
                          0.005453837164004675,
                          0.0,
                          0.000584339696143358
                        ],
                        "name": "TCP flags (Reset) <= 1.5",
                        "feature": "TCP flags (Reset)",
                        "threshold": "1.5",
                        "children": [
                          {
                            "value": [
                              0.9955130706203668,
                              0.0,
                              0.0,
                              0.0039016777214202106,
                              0.0,
                              0.0005852516582130316
                            ],
                            "name": "Time to live <= 122.0",
                            "feature": "Time to live",
                            "threshold": "122.0",
                            "tobedel": 1,
                            "leafcount": [
                              1,
                              1
                            ]
                          },
                          {
                            "value": [
                              0.0,
                              0.0,
                              0.0,
                              1.0,
                              0.0,
                              0.0
                            ],
                            "tobedel": 0,
                            "leafcount": [
                              1,
                              0
                            ]
                          }
                        ],
                        "tobedel": 0,
                        "leafcount": [
                          2,
                          1
                        ]
                      }
                    ],
                    "tobedel": 0,
                    "leafcount": [
                      1,
                      3
                    ]
                  },
                  {
                    "value": [
                      0.13555555555555557,
                      0.8477777777777777,
                      0.0,
                      0.014444444444444444,
                      0.0,
                      0.0022222222222222222
                    ],
                    "name": "Time to live <= 81.5",
                    "feature": "Time to live",
                    "threshold": "81.5",
                    "children": [
                      {
                        "value": [
                          0.0,
                          1.0,
                          0.0,
                          0.0,
                          0.0,
                          0.0
                        ],
                        "tobedel": 0,
                        "leafcount": [
                          1,
                          0
                        ]
                      },
                      {
                        "value": [
                          0.4066666666666667,
                          0.5433333333333333,
                          0.0,
                          0.043333333333333335,
                          0.0,
                          0.006666666666666667
                        ],
                        "name": "Total length <= 87.0",
                        "feature": "Total length",
                        "threshold": "87.0",
                        "children": [
                          {
                            "value": [
                              0.14285714285714285,
                              0.8571428571428571,
                              0.0,
                              0.0,
                              0.0,
                              0.0
                            ],
                            "name": "Total length <= 80.5",
                            "feature": "Total length",
                            "threshold": "80.5",
                            "tobedel": 1,
                            "leafcount": [
                              1,
                              1
                            ]
                          },
                          {
                            "value": [
                              0.8558558558558559,
                              0.009009009009009009,
                              0.0,
                              0.11711711711711711,
                              0.0,
                              0.018018018018018018
                            ],
                            "name": "Time to live <= 117.5",
                            "feature": "Time to live",
                            "threshold": "117.5",
                            "children": [
                              {
                                "value": [
                                  0.11764705882352941,
                                  0.0,
                                  0.0,
                                  0.7647058823529411,
                                  0.0,
                                  0.11764705882352941
                                ],
                                "tobedel": 0,
                                "leafcount": [
                                  1,
                                  0
                                ]
                              },
                              {
                                "value": [
                                  0.9893617021276596,
                                  0.010638297872340425,
                                  0.0,
                                  0.0,
                                  0.0,
                                  0.0
                                ],
                                "tobedel": 0,
                                "leafcount": [
                                  1,
                                  0
                                ]
                              }
                            ],
                            "tobedel": 0,
                            "leafcount": [
                              1,
                              1
                            ]
                          }
                        ],
                        "tobedel": 0,
                        "leafcount": [
                          2,
                          2
                        ]
                      }
                    ],
                    "tobedel": 0,
                    "leafcount": [
                      1,
                      4
                    ]
                  }
                ],
                "tobedel": 0,
                "leafcount": [
                  4,
                  5
                ]
              }
            ],
            "tobedel": 0,
            "leafcount": [
              15,
              9
            ]
          }
        ],
        "tobedel": 0,
        "leafcount": [
          27,
          24
        ]
      }
    ],
    "tobedel": 0,
    "leafcount": [
      40,
      51
    ]
  },
  "class_names": [
    "0",
    "1",
    "2",
    "3",
    "4",
    "5"
  ]
}