{
  "model_type": "DecisionTree",
  "depth": 5,
  "feature_list": [
    "Total length",
    "Protocol",
    "IPV4 Flags (DF)",
    "Time to live",
    "Src Port",
    "Dst Port",
    "TCP flags (Reset)",
    "TCP flags (Syn)"
  ],
  "match_types": [
    3,
    1,
    1,
    1,
    2,
    2,
    1,
    0
  ],
  "tree_structure": {
    "value": [
      0.07097233587142812,
      0.021125581735234312,
      0.6798406277004964,
      0.07376704419445868,
      0.1066246228333363,
      0.04766978766504626
    ],
    "name": "Src Port <= 255.5",
    "feature": "Src Port",
    "threshold": "255.5",
    "children": [
      {
        "value": [
          0.17397707876127774,
          0.053609688693814515,
          0.0008290660814435503,
          0.1860521823945379,
          0.40501666260261726,
          0.18051532146630903
        ],
        "name": "Dst Port <= 610.0",
        "feature": "Dst Port",
        "threshold": "610.0",
        "children": [
          {
            "value": [
              0.2415721888295421,
              0.07995808531385076,
              0.0012370653898211349,
              0.27589954058787286,
              0.13210402992242873,
              0.2692290899564844
            ],
            "name": "Total length <= 1389.5",
            "feature": "Total length",
            "threshold": "1389.5",
            "children": [
              {
                "value": [
                  0.3250670417499211,
                  0.1083315806078452,
                  0.0016760437480281838,
                  0.02119702387212115,
                  0.17896203596592702,
                  0.3647662740561573
                ],
                "name": "Dst Port <= 58.5",
                "feature": "Dst Port",
                "threshold": "58.5",
                "children": [
                  {
                    "value": [
                      0.669632145296148,
                      0.2474575019841636,
                      0.0019195629302866425,
                      0.02423448199486886,
                      0.0079181970874324,
                      0.048838110707100535
                    ],
                    "name": "Total length <= 30.5",
                    "feature": "Total length",
                    "threshold": "30.5",
                    "children": [
                      {
                        "value": [
                          0.0,
                          0.0,
                          0.0,
                          0.0004170141784820684,
                          0.0,
                          0.9995829858215179
                        ],
                        "tobedel": 0,
                        "leafcount": [
                          1,
                          0
                        ]
                      },
                      {
                        "value": [
                          0.7006430930263996,
                          0.2589173635117128,
                          0.002008458701067959,
                          0.025337478998088102,
                          0.008284892141905332,
                          0.004808713620826172
                        ],
                        "tobedel": 0,
                        "leafcount": [
                          1,
                          0
                        ]
                      }
                    ],
                    "tobedel": 0,
                    "leafcount": [
                      1,
                      1
                    ],
                    "match_type": "prefix",
                    "prefix": "30"
                  },
                  {
                    "value": [
                      0.13450722196702905,
                      0.03138876129229827,
                      0.0015413668146787118,
                      0.019517174501097332,
                      0.27355688256009797,
                      0.5394885928647987
                    ],
                    "name": "Dst Port <= 91.5",
                    "feature": "Dst Port",
                    "threshold": "91.5",
                    "children": [
                      {
                        "value": [
                          0.027543173130675207,
                          0.0035052200583196094,
                          7.554353573964676e-05,
                          0.0017677187363077341,
                          0.2012177617961231,
                          0.7658905827428347
                        ],
                        "tobedel": 0,
                        "leafcount": [
                          1,
                          0
                        ]
                      },
                      {
                        "value": [
                          0.3572912077537919,
                          0.08946440933979483,
                          0.004594373465919819,
                          0.05648561898168544,
                          0.4242243061237334,
                          0.06794008433507458
                        ],
                        "tobedel": 0,
                        "leafcount": [
                          1,
                          0
                        ]
                      }
                    ],
                    "tobedel": 0,
                    "leafcount": [
                      1,
                      1
                    ],
                    "match_type": "range",
                    "range": [
                      0,
                      91.5
                    ]
                  }
                ],
                "tobedel": 0,
                "leafcount": [
                  2,
                  2
                ],
                "match_type": "range",
                "range": [
                  0,
                  58.5
                ]
              },
              {
                "value": [
                  0.006279056844912852,
                  0.0,
                  0.0,
                  0.9936653762803535,
                  5.556687473374206e-05,
                  0.0
                ],
                "name": "Time to live <= 64.0",
                "feature": "Time to live",
                "threshold": "64.0",
                "children": [
                  {
                    "value": [
                      0.0011357712072689358,
                      0.0,
                      0.0,
                      0.9988642287927311,
                      0.0,
                      0.0
                    ],
                    "name": "Src Port <= 95.0",
                    "feature": "Src Port",
                    "threshold": "95.0",
                    "children": [
                      {
                        "value": [
                          0.7023809523809523,
                          0.0,
                          0.0,
                          0.2976190476190476,
                          0.0,
                          0.0
                        ],
                        "tobedel": 0,
                        "leafcount": [
                          1,
                          0
                        ]
                      },
                      {
                        "value": [
                          3.7296732806206175e-05,
                          0.0,
                          0.0,
                          0.9999627032671938,
                          0.0,
                          0.0
                        ],
                        "tobedel": 0,
                        "leafcount": [
                          1,
                          0
                        ]
                      }
                    ],
                    "tobedel": 0,
                    "leafcount": [
                      1,
                      1
                    ],
                    "match_type": "range",
                    "range": [
                      0,
                      95.0
                    ]
                  },
                  {
                    "value": [
                      0.9893238434163701,
                      0.0,
                      0.0,
                      0.0,
                      0.010676156583629894,
                      0.0
                    ],
                    "name": "Time to live <= 102.0",
                    "feature": "Time to live",
                    "threshold": "102.0",
                    "children": [
                      {
                        "value": [
                          0.4,
                          0.0,
                          0.0,
                          0.0,
                          0.6,
                          0.0
                        ],
                        "tobedel": 0,
                        "leafcount": [
                          1,
                          0
                        ]
                      },
                      {
                        "value": [
                          1.0,
                          0.0,
                          0.0,
                          0.0,
                          0.0,
                          0.0
                        ],
                        "tobedel": 0,
                        "leafcount": [
                          1,
                          0
                        ]
                      }
                    ],
                    "tobedel": 0,
                    "leafcount": [
                      1,
                      1
                    ],
                    "match_type": "ternary",
                    "ternary": "1100110"
                  }
                ],
                "tobedel": 0,
                "leafcount": [
                  2,
                  2
                ],
                "match_type": "ternary",
                "ternary": "1000000"
              }
            ],
            "tobedel": 0,
            "leafcount": [
              4,
              4
            ],
            "match_type": "prefix",
            "prefix": "1389"
          },
          {
            "value": [
              0.03662191202854833,
              6.90049486406025e-05,
              0.0,
              0.0034798209814475268,
              0.9595828157962185,
              0.000246446245145009
            ],
            "name": "Dst Port <= 1190.5",
            "feature": "Dst Port",
            "threshold": "1190.5",
            "children": [
              {
                "value": [
                  0.007330899896001142,
                  7.13717653296356e-05,
                  0.0,
                  9.176369828096005e-05,
                  0.9924957686739126,
                  1.0195966475662228e-05
                ],
                "name": "Time to live <= 59.5",
                "feature": "Time to live",
                "threshold": "59.5",
                "children": [
                  {
                    "value": [
                      0.9709302325581395,
                      0.023255813953488372,
                      0.0,
                      0.0,
                      0.0,
                      0.005813953488372093
                    ],
                    "name": "Total length <= 703.5",
                    "feature": "Total length",
                    "threshold": "703.5",
                    "children": [
                      {
                        "value": [
                          0.3333333333333333,
                          0.6666666666666666,
                          0.0,
                          0.0,
                          0.0,
                          0.0
                        ],
                        "tobedel": 0,
                        "leafcount": [
                          1,
                          0
                        ]
                      },
                      {
                        "value": [
                          0.9939759036144579,
                          0.0,
                          0.0,
                          0.0,
                          0.0,
                          0.006024096385542169
                        ],
                        "tobedel": 0,
                        "leafcount": [
                          1,
                          0
                        ]
                      }
                    ],
                    "tobedel": 0,
                    "leafcount": [
                      1,
                      1
                    ],
                    "match_type": "prefix",
                    "prefix": "703"
                  },
                  {
                    "value": [
                      0.005638060997283108,
                      3.0641635854799505e-05,
                      0.0,
                      9.192490756439851e-05,
                      0.9942393724592977,
                      0.0
                    ],
                    "name": "Dst Port <= 1044.5",
                    "feature": "Dst Port",
                    "threshold": "1044.5",
                    "tobedel": 1,
                    "leafcount": [
                      1,
                      1
                    ]
                  }
                ],
                "tobedel": 0,
                "leafcount": [
                  2,
                  2
                ],
                "match_type": "ternary",
                "ternary": "111011"
              },
              {
                "value": [
                  0.8906064209274673,
                  0.0,
                  0.0,
                  0.10225921521997622,
                  0.0,
                  0.007134363852556481
                ],
                "name": "Dst Port <= 1434.0",
                "feature": "Dst Port",
                "threshold": "1434.0",
                "children": [
                  {
                    "value": [
                      0.9920529801324504,
                      0.0,
                      0.0,
                      0.0,
                      0.0,
                      0.007947019867549669
                    ],
                    "name": "Time to live <= 49.0",
                    "feature": "Time to live",
                    "threshold": "49.0",
                    "tobedel": 1,
                    "leafcount": [
                      1,
                      1
                    ]
                  },
                  {
                    "value": [
                      0.0,
                      0.0,
                      0.0,
                      1.0,
                      0.0,
                      0.0
                    ],
                    "tobedel": 0,
                    "leafcount": [
                      1,
                      0
                    ]
                  }
                ],
                "tobedel": 0,
                "leafcount": [
                  2,
                  1
                ],
                "match_type": "range",
                "range": [
                  0,
                  1434.0
                ]
              }
            ],
            "tobedel": 0,
            "leafcount": [
              4,
              3
            ],
            "match_type": "range",
            "range": [
              0,
              1190.5
            ]
          }
        ],
        "tobedel": 0,
        "leafcount": [
          8,
          7
        ],
        "match_type": "range",
        "range": [
          0,
          610.0
        ]
      },
      {
        "value": [
          0.034526948367176964,
          0.009631976366974503,
          0.9200901423227178,
          0.0340380447536616,
          0.0010468289136446672,
          0.0006660592758244641
        ],
        "name": "Src Port <= 32921.5",
        "feature": "Src Port",
        "threshold": "32921.5",
        "children": [
          {
            "value": [
              0.024789101857096013,
              0.007354457924702656,
              0.953670969088145,
              0.012458938206098906,
              0.001085044862431812,
              0.0006414880615256208
            ],
            "name": "Time to live <= 126.0",
            "feature": "Time to live",
            "threshold": "126.0",
            "children": [
              {
                "value": [
                  0.5862068965517241,
                  0.2920689655172414,
                  0.0,
                  0.041862068965517245,
                  0.06193103448275862,
                  0.01793103448275862
                ],
                "name": "Src Port <= 368.0",
                "feature": "Src Port",
                "threshold": "368.0",
                "children": [
                  {
                    "value": [
                      0.15858585858585858,
                      0.7724747474747474,
                      0.0,
                      0.010858585858585859,
                      0.012121212121212121,
                      0.04595959595959596
                    ],
                    "name": "Time to live <= 47.5",
                    "feature": "Time to live",
                    "threshold": "47.5",
                    "children": [
                      {
                        "value": [
                          0.02776044915782907,
                          0.9532127261384903,
                          0.0,
                          0.0028072364316905803,
                          0.002183406113537118,
                          0.014036182158452901
                        ],
                        "tobedel": 0,
                        "leafcount": [
                          1,
                          0
                        ]
                      },
                      {
                        "value": [
                          0.7148541114058355,
                          0.003978779840848806,
                          0.0,
                          0.04509283819628647,
                          0.054376657824933686,
                          0.1816976127320955
                        ],
                        "tobedel": 0,
                        "leafcount": [
                          1,
                          0
                        ]
                      }
                    ],
                    "tobedel": 0,
                    "leafcount": [
                      1,
                      1
                    ],
                    "match_type": "ternary",
                    "ternary": "101111"
                  },
                  {
                    "value": [
                      0.7468690702087286,
                      0.11157495256166983,
                      0.0,
                      0.05351043643263757,
                      0.08064516129032258,
                      0.007400379506641366
                    ],
                    "name": "Src Port <= 17821.0",
                    "feature": "Src Port",
                    "threshold": "17821.0",
                    "children": [
                      {
                        "value": [
                          0.8362327534493101,
                          0.006838632273545291,
                          0.0,
                          0.05098980203959208,
                          0.09922015596880623,
                          0.006718656268746251
                        ],
                        "tobedel": 0,
                        "leafcount": [
                          1,
                          0
                        ]
                      },
                      {
                        "value": [
                          0.4090702947845805,
                          0.507482993197279,
                          0.0,
                          0.06303854875283446,
                          0.010430839002267574,
                          0.009977324263038548
                        ],
                        "tobedel": 0,
                        "leafcount": [
                          1,
                          0
                        ]
                      }
                    ],
                    "tobedel": 0,
                    "leafcount": [
                      1,
                      1
                    ],
                    "match_type": "range",
                    "range": [
                      0,
                      17821.0
                    ]
                  }
                ],
                "tobedel": 0,
                "leafcount": [
                  2,
                  2
                ],
                "match_type": "range",
                "range": [
                  0,
                  368.0
                ]
              },
              {
                "value": [
                  0.014911881578548246,
                  0.002345375678709012,
                  0.9704492371159038,
                  0.011941638608305275,
                  1.456001456001456e-05,
                  0.00033730700397367064
                ],
                "name": "Total length <= 1444.0",
                "feature": "Total length",
                "threshold": "1444.0",
                "children": [
                  {
                    "value": [
                      0.03878181049122785,
                      0.0061016799348480736,
                      0.9231813332154875,
                      0.0310387060524372,
                      3.7879027014059434e-05,
                      0.0008585912789853471
                    ],
                    "name": "Src Port <= 24302.0",
                    "feature": "Src Port",
                    "threshold": "24302.0",
                    "tobedel": 1,
                    "leafcount": [
                      1,
                      1
                    ]
                  },
                  {
                    "value": [
                      7.883684124428186e-06,
                      0.0,
                      0.999962552500409,
                      1.773828927996342e-05,
                      0.0,
                      1.182552618664228e-05
                    ],
                    "name": "Src Port <= 8390.5",
                    "feature": "Src Port",
                    "threshold": "8390.5",
                    "children": [
                      {
                        "value": [
                          0.0,
                          0.0,
                          0.9999704359514597,
                          1.77384291241355e-05,
                          0.0,
                          1.1825619416090332e-05
                        ],
                        "tobedel": 0,
                        "leafcount": [
                          1,
                          0
                        ]
                      },
                      {
                        "value": [
                          1.0,
                          0.0,
                          0.0,
                          0.0,
                          0.0,
                          0.0
                        ],
                        "tobedel": 0,
                        "leafcount": [
                          1,
                          0
                        ]
                      }
                    ],
                    "tobedel": 0,
                    "leafcount": [
                      1,
                      1
                    ],
                    "match_type": "range",
                    "range": [
                      0,
                      8390.5
                    ]
                  }
                ],
                "tobedel": 0,
                "leafcount": [
                  2,
                  2
                ],
                "match_type": "prefix",
                "prefix": "1444"
              }
            ],
            "tobedel": 0,
            "leafcount": [
              4,
              4
            ],
            "match_type": "ternary",
            "ternary": "1111110"
          },
          {
            "value": [
              0.30127053597674497,
              0.07201881307770193,
              0.00022863115262762517,
              0.6251428944703923,
              0.0,
              0.0013391253225332332
            ],
            "name": "Total length <= 76.5",
            "feature": "Total length",
            "threshold": "76.5",
            "children": [
              {
                "value": [
                  0.16299164458936213,
                  0.05681679233747707,
                  0.0002853067047075606,
                  0.7784389647442429,
                  0.0,
                  0.0014672916242103118
                ],
                "name": "Time to live <= 126.0",
                "feature": "Time to live",
                "threshold": "126.0",
                "children": [
                  {
                    "value": [
                      0.4511993382961125,
                      0.5310173697270472,
                      0.0,
                      0.007857733664185277,
                      0.0,
                      0.009925558312655087
                    ],
                    "name": "Time to live <= 81.0",
                    "feature": "Time to live",
                    "threshold": "81.0",
                    "children": [
                      {
                        "value": [
                          0.04145077720207254,
                          0.9474463360473723,
                          0.0,
                          0.0022205773501110288,
                          0.0,
                          0.008882309400444115
                        ],
                        "tobedel": 0,
                        "leafcount": [
                          1,
                          0
                        ]
                      },
                      {
                        "value": [
                          0.9700093720712277,
                          0.0037488284910965324,
                          0.0,
                          0.01499531396438613,
                          0.0,
                          0.011246485473289597
                        ],
                        "tobedel": 0,
                        "leafcount": [
                          1,
                          0
                        ]
                      }
                    ],
                    "tobedel": 0,
                    "leafcount": [
                      1,
                      1
                    ],
                    "match_type": "ternary",
                    "ternary": "1010001"
                  },
                  {
                    "value": [
                      0.13148256996880228,
                      0.004973549758104626,
                      0.00031649862097029435,
                      0.8626848125876023,
                      0.0,
                      0.0005425690645205046
                    ],
                    "name": "Src Port <= 65470.0",
                    "feature": "Src Port",
                    "threshold": "65470.0",
                    "tobedel": 1,
                    "leafcount": [
                      1,
                      1
                    ]
                  }
                ],
                "tobedel": 0,
                "leafcount": [
                  2,
                  2
                ],
                "match_type": "ternary",
                "ternary": "1111110"
              },
              {
                "value": [
                  0.8590924038145347,
                  0.1333442946399211,
                  0.0,
                  0.0067412035514633345,
                  0.0,
                  0.0008220979940808945
                ],
                "name": "Src Port <= 65139.5",
                "feature": "Src Port",
                "threshold": "65139.5",
                "children": [
                  {
                    "value": [
                      0.9847549208799691,
                      0.009262832883056734,
                      0.0,
                      0.005403319181783096,
                      0.0,
                      0.0005789270551910459
                    ],
                    "name": "Time to live <= 85.5",
                    "feature": "Time to live",
                    "threshold": "85.5",
                    "children": [
                      {
                        "value": [
                          0.0,
                          1.0,
                          0.0,
                          0.0,
                          0.0,
                          0.0
                        ],
                        "tobedel": 0,
                        "leafcount": [
                          1,
                          0
                        ]
                      },
                      {
                        "value": [
                          0.9939618231398519,
                          0.0,
                          0.0,
                          0.005453837164004675,
                          0.0,
                          0.000584339696143358
                        ],
                        "tobedel": 0,
                        "leafcount": [
                          1,
                          0
                        ]
                      }
                    ],
                    "tobedel": 0,
                    "leafcount": [
                      1,
                      1
                    ],
                    "match_type": "ternary",
                    "ternary": "1010101"
                  },
                  {
                    "value": [
                      0.13555555555555557,
                      0.8477777777777777,
                      0.0,
                      0.014444444444444444,
                      0.0,
                      0.0022222222222222222
                    ],
                    "name": "Time to live <= 81.5",
                    "feature": "Time to live",
                    "threshold": "81.5",
                    "tobedel": 1,
                    "leafcount": [
                      1,
                      1
                    ]
                  }
                ],
                "tobedel": 0,
                "leafcount": [
                  2,
                  2
                ],
                "match_type": "range",
                "range": [
                  0,
                  65139.5
                ]
              }
            ],
            "tobedel": 0,
            "leafcount": [
              4,
              4
            ],
            "match_type": "prefix",
            "prefix": "76"
          }
        ],
        "tobedel": 0,
        "leafcount": [
          8,
          8
        ],
        "match_type": "range",
        "range": [
          0,
          32921.5
        ]
      }
    ],
    "tobedel": 0,
    "leafcount": [
      15,
      16
    ],
    "match_type": "range",
    "range": [
      0,
      255.5
    ]
  },
  "class_names": [
    "0",
    "1",
    "2",
    "3",
    "4",
    "5"
  ]
}