digraph Tree {
node [shape=box, style="filled, rounded", color="black", fontname="helvetica"] ;
edge [fontname="helvetica"] ;
0 [label="f7 <= 255.5\ngini = 0.513\nsamples = 744244\nvalue = [83673.0, 24720.0, 800331.0, 86649.0, 125284.0, 56210.0]\nclass = cls2", fillcolor="#80eeae"] ;
1 [label="f0 <= 11.5\ngini = 0.7357\nsamples = 194352\nvalue = [53788, 16435, 240, 56893, 124378, 55609]\nclass = cls4", fillcolor="#ddcaf8"] ;
0 -> 1 [labeldistance=2.5, labelangle=45, headlabel="True"] ;
2 [label="f7 <= 250.5\ngini = 0.3015\nsamples = 41965\nvalue = [11581, 85, 102, 54132, 319, 19]\nclass = cls3", fillcolor="#65b3eb"] ;
1 -> 2 ;
3 [label="f5 <= 6.5\ngini = 0.0379\nsamples = 34998\nvalue = [576.0, 85.0, 69.0, 54121.0, 317.0, 14.0]\nclass = cls3", fillcolor="#3d9fe6"] ;
2 -> 3 ;
4 [label="f6 <= 10.0\ngini = 0.0276\nsamples = 34803\nvalue = [561, 85, 69, 54121, 38, 14]\nclass = cls3", fillcolor="#3c9ee5"] ;
3 -> 4 ;
5 [label="gini = 0.6131\nsamples = 89\nvalue = [27.0, 85.0, 0.0, 3.0, 38.0, 3.0]\nclass = cls1", fillcolor="#d8f5b0"] ;
4 -> 5 ;
6 [label="gini = 0.0222\nsamples = 34714\nvalue = [534, 0, 69, 54118, 0, 11]\nclass = cls3", fillcolor="#3b9ee5"] ;
4 -> 6 ;
7 [label="f7 <= 154.0\ngini = 0.0968\nsamples = 195\nvalue = [15, 0, 0, 0, 279, 0]\nclass = cls4", fillcolor="#8844e6"] ;
3 -> 7 ;
8 [label="gini = 0.0\nsamples = 87\nvalue = [0, 0, 0, 0, 139, 0]\nclass = cls4", fillcolor="#8139e5"] ;
7 -> 8 ;
9 [label="gini = 0.1748\nsamples = 108\nvalue = [15, 0, 0, 0, 140, 0]\nclass = cls4", fillcolor="#8e4ee8"] ;
7 -> 9 ;
10 [label="f4 <= 87.0\ngini = 0.0092\nsamples = 6967\nvalue = [11005.0, 0.0, 33.0, 11.0, 2.0, 5.0]\nclass = cls0", fillcolor="#e5823a"] ;
2 -> 10 ;
11 [label="f6 <= 16.5\ngini = 0.6122\nsamples = 6\nvalue = [6, 0, 0, 6, 2, 0]\nclass = cls0", fillcolor="#ffffff"] ;
10 -> 11 ;
12 [label="gini = 0.4082\nsamples = 3\nvalue = [5, 0, 0, 0, 2, 0]\nclass = cls0", fillcolor="#efb388"] ;
11 -> 12 ;
13 [label="gini = 0.2449\nsamples = 3\nvalue = [1, 0, 0, 6, 0, 0]\nclass = cls3", fillcolor="#5aade9"] ;
11 -> 13 ;
14 [label="f9 <= 80.5\ngini = 0.0078\nsamples = 6961\nvalue = [10999, 0, 33, 5, 0, 5]\nclass = cls0", fillcolor="#e5813a"] ;
10 -> 14 ;
15 [label="gini = 0.0037\nsamples = 4388\nvalue = [6950, 0, 5, 3, 0, 5]\nclass = cls0", fillcolor="#e58139"] ;
14 -> 15 ;
16 [label="gini = 0.0146\nsamples = 2573\nvalue = [4049.0, 0.0, 28.0, 2.0, 0.0, 0.0]\nclass = cls0", fillcolor="#e5823a"] ;
14 -> 16 ;
17 [label="f9 <= 630.0\ngini = 0.6467\nsamples = 152387\nvalue = [42207.0, 16350.0, 138.0, 2761.0, 124059.0, 55590.0]\nclass = cls4", fillcolor="#d0b6f5"] ;
1 -> 17 ;
18 [label="f2 <= 2.5\ngini = 0.7154\nsamples = 88434\nvalue = [38576.0, 16343.0, 138.0, 2398.0, 26946.0, 55570.0]\nclass = cls5", fillcolor="#fbdeef"] ;
17 -> 18 ;
19 [label="f8 <= 58.5\ngini = 0.7154\nsamples = 88417\nvalue = [38571.0, 16340.0, 138.0, 2388.0, 26946.0, 55567.0]\nclass = cls5", fillcolor="#fbdeef"] ;
18 -> 19 ;
20 [label="gini = 0.5307\nsamples = 26464\nvalue = [25292.0, 13267.0, 1.0, 502.0, 120.0, 2700.0]\nclass = cls0", fillcolor="#f4caac"] ;
19 -> 20 ;
21 [label="gini = 0.6149\nsamples = 61953\nvalue = [13279.0, 3073.0, 137.0, 1886.0, 26826.0, 52867.0]\nclass = cls5", fillcolor="#f5b7db"] ;
19 -> 21 ;
22 [label="f8 <= 292.0\ngini = 0.6757\nsamples = 17\nvalue = [5, 3, 0, 10, 0, 3]\nclass = cls3", fillcolor="#c1e0f7"] ;
18 -> 22 ;
23 [label="gini = 0.4978\nsamples = 12\nvalue = [0, 2, 0, 10, 0, 3]\nclass = cls3", fillcolor="#8cc6f0"] ;
22 -> 23 ;
24 [label="gini = 0.2778\nsamples = 5\nvalue = [5, 1, 0, 0, 0, 0]\nclass = cls0", fillcolor="#ea9a61"] ;
22 -> 24 ;
25 [label="f4 <= 59.5\ngini = 0.0766\nsamples = 63953\nvalue = [3631.0, 7.0, 0.0, 363.0, 97113.0, 20.0]\nclass = cls4", fillcolor="#8641e6"] ;
17 -> 25 ;
26 [label="f9 <= 703.5\ngini = 0.0117\nsamples = 1075\nvalue = [1698, 3, 0, 0, 0, 7]\nclass = cls0", fillcolor="#e5823a"] ;
25 -> 26 ;
27 [label="gini = 0.48\nsamples = 4\nvalue = [2, 3, 0, 0, 0, 0]\nclass = cls1", fillcolor="#def6bd"] ;
26 -> 27 ;
28 [label="gini = 0.0082\nsamples = 1071\nvalue = [1696.0, 0.0, 0.0, 0.0, 0.0, 7.0]\nclass = cls0", fillcolor="#e5823a"] ;
26 -> 28 ;
29 [label="f8 <= 1191.0\ngini = 0.0456\nsamples = 62878\nvalue = [1933.0, 4.0, 0.0, 363.0, 97113.0, 13.0]\nclass = cls4", fillcolor="#843ee6"] ;
25 -> 29 ;
30 [label="gini = 0.0115\nsamples = 61766\nvalue = [551, 4, 0, 11, 97113, 0]\nclass = cls4", fillcolor="#823ae5"] ;
29 -> 30 ;
31 [label="gini = 0.3336\nsamples = 1112\nvalue = [1382, 0, 0, 352, 0, 13]\nclass = cls0", fillcolor="#eca26d"] ;
29 -> 31 ;
32 [label="f6 <= 16.5\ngini = 0.1509\nsamples = 549892\nvalue = [29885.0, 8285.0, 800091.0, 29756.0, 906.0, 601.0]\nclass = cls2", fillcolor="#49e78b"] ;
0 -> 32 [labeldistance=2.5, labelangle=-45, headlabel="False"] ;
33 [label="f4 <= 126.0\ngini = 0.1083\nsamples = 520430\nvalue = [13725.0, 3364.0, 776582.0, 28649.0, 514.0, 274.0]\nclass = cls2", fillcolor="#45e788"] ;
32 -> 33 ;
34 [label="f6 <= 9.0\ngini = 0.5314\nsamples = 5727\nvalue = [5576.0, 2662.0, 0.0, 219.0, 506.0, 100.0]\nclass = cls0", fillcolor="#f3c6a5"] ;
33 -> 34 ;
35 [label="f4 <= 57.5\ngini = 0.5572\nsamples = 83\nvalue = [23, 76, 0, 2, 16, 5]\nclass = cls1", fillcolor="#cbf195"] ;
34 -> 35 ;
36 [label="gini = 0.1107\nsamples = 14\nvalue = [16, 0, 0, 0, 0, 1]\nclass = cls0", fillcolor="#e78945"] ;
35 -> 36 ;
37 [label="gini = 0.4466\nsamples = 69\nvalue = [7, 76, 0, 2, 16, 4]\nclass = cls1", fillcolor="#bded7a"] ;
35 -> 37 ;
38 [label="f7 <= 65235.0\ngini = 0.5269\nsamples = 5644\nvalue = [5553, 2586, 0, 217, 490, 95]\nclass = cls0", fillcolor="#f3c4a3"] ;
34 -> 38 ;
39 [label="gini = 0.4741\nsamples = 5072\nvalue = [5543, 1697, 0, 210, 490, 88]\nclass = cls0", fillcolor="#efb287"] ;
38 -> 39 ;
40 [label="gini = 0.0516\nsamples = 572\nvalue = [10, 889, 0, 7, 0, 7]\nclass = cls1", fillcolor="#a0e63e"] ;
38 -> 40 ;
41 [label="f5 <= 6.0\ngini = 0.0886\nsamples = 514703\nvalue = [8149.0, 702.0, 776582.0, 28430.0, 8.0, 174.0]\nclass = cls2", fillcolor="#42e687"] ;
33 -> 41 ;
42 [label="f7 <= 32921.5\ngini = 0.0813\nsamples = 512508\nvalue = [7961.0, 649.0, 776385.0, 25376.0, 8.0, 106.0]\nclass = cls2", fillcolor="#42e686"] ;
41 -> 42 ;
43 [label="gini = 0.0357\nsamples = 500130\nvalue = [5213, 546, 776385, 8451, 8, 103]\nclass = cls2", fillcolor="#3de583"] ;
42 -> 43 ;
44 [label="gini = 0.2484\nsamples = 12378\nvalue = [2748.0, 103.0, 0.0, 16925.0, 0.0, 3.0]\nclass = cls3", fillcolor="#5aade9"] ;
42 -> 44 ;
45 [label="f5 <= 9.0\ngini = 0.2576\nsamples = 2195\nvalue = [188, 53, 197, 3054, 0, 68]\nclass = cls3", fillcolor="#57ace9"] ;
41 -> 45 ;
46 [label="gini = 0.3263\nsamples = 1670\nvalue = [188, 53, 197, 2215, 0, 68]\nclass = cls3", fillcolor="#61b1ea"] ;
45 -> 46 ;
47 [label="gini = 0.0\nsamples = 525\nvalue = [0, 0, 0, 839, 0, 0]\nclass = cls3", fillcolor="#399de5"] ;
45 -> 47 ;
48 [label="f5 <= 5.5\ngini = 0.6103\nsamples = 29462\nvalue = [16160, 4921, 23509, 1107, 392, 327]\nclass = cls2", fillcolor="#cff9e0"] ;
32 -> 48 ;
49 [label="f4 <= 126.0\ngini = 0.5974\nsamples = 28816\nvalue = [15911.0, 4805.0, 23503.0, 869.0, 13.0, 289.0]\nclass = cls2", fillcolor="#ccf8df"] ;
48 -> 49 ;
50 [label="f6 <= 18.5\ngini = 0.4686\nsamples = 6908\nvalue = [7136, 3388, 0, 155, 6, 156]\nclass = cls0", fillcolor="#f2c09b"] ;
49 -> 50 ;
51 [label="gini = 0.6709\nsamples = 287\nvalue = [152.0, 175.0, 0.0, 63.0, 2.0, 30.0]\nclass = cls1", fillcolor="#f7fdee"] ;
50 -> 51 ;
52 [label="gini = 0.4554\nsamples = 6621\nvalue = [6984.0, 3213.0, 0.0, 92.0, 4.0, 126.0]\nclass = cls0", fillcolor="#f1bd97"] ;
50 -> 52 ;
53 [label="f9 <= 687.5\ngini = 0.4706\nsamples = 21908\nvalue = [8775.0, 1417.0, 23503.0, 714.0, 7.0, 133.0]\nclass = cls2", fillcolor="#8ef0b7"] ;
49 -> 53 ;
54 [label="gini = 0.4309\nsamples = 6556\nvalue = [7545.0, 1371.0, 516.0, 661.0, 7.0, 127.0]\nclass = cls0", fillcolor="#eda775"] ;
53 -> 54 ;
55 [label="gini = 0.1042\nsamples = 15352\nvalue = [1230.0, 46.0, 22987.0, 53.0, 0.0, 6.0]\nclass = cls2", fillcolor="#44e788"] ;
53 -> 55 ;
56 [label="f3 <= 1.0\ngini = 0.7367\nsamples = 646\nvalue = [249, 116, 6, 238, 379, 38]\nclass = cls4", fillcolor="#eadefb"] ;
48 -> 56 ;
57 [label="f9 <= 48.0\ngini = 0.479\nsamples = 102\nvalue = [36, 106, 0, 0, 2, 12]\nclass = cls1", fillcolor="#c6f08c"] ;
56 -> 57 ;
58 [label="gini = 0.0\nsamples = 36\nvalue = [0, 56, 0, 0, 0, 0]\nclass = cls1", fillcolor="#9de539"] ;
57 -> 58 ;
59 [label="gini = 0.6056\nsamples = 66\nvalue = [36, 50, 0, 0, 2, 12]\nclass = cls1", fillcolor="#eaf9d4"] ;
57 -> 59 ;
60 [label="f6 <= 21.0\ngini = 0.6764\nsamples = 544\nvalue = [213, 10, 6, 238, 377, 26]\nclass = cls4", fillcolor="#e3d3f9"] ;
56 -> 60 ;
61 [label="gini = 0.6213\nsamples = 280\nvalue = [145.0, 10.0, 6.0, 237.0, 33.0, 26.0]\nclass = cls3", fillcolor="#c5e2f7"] ;
60 -> 61 ;
62 [label="gini = 0.2791\nsamples = 264\nvalue = [68, 0, 0, 1, 344, 0]\nclass = cls4", fillcolor="#9a61ea"] ;
60 -> 62 ;
}