digraph Tree {
node [shape=box, style="filled, rounded", color="black", fontname="helvetica"] ;
edge [fontname="helvetica"] ;
0 [label="f0 <= 11.5\ngini = 0.5131\nsamples = 743350\nvalue = [83653.0, 24716.0, 800235.0, 86424.0, 125528.0, 56311.0]\nclass = cls2", fillcolor="#80eeae"] ;
1 [label="f4 <= 126.0\ngini = 0.2583\nsamples = 590856\nvalue = [41549, 8300, 800084, 83661, 1196, 608]\nclass = cls2", fillcolor="#58e995"] ;
0 -> 1 [labeldistance=2.5, labelangle=45, headlabel="True"] ;
2 [label="f6 <= 16.5\ngini = 0.4379\nsamples = 47922\nvalue = [13238.0, 6168.0, 0.0, 55002.0, 1182.0, 329.0]\nclass = cls3", fillcolor="#7bbeee"] ;
1 -> 2 ;
3 [label="f7 <= 250.5\ngini = 0.2667\nsamples = 39102\nvalue = [5901, 2627, 0, 52723, 649, 133]\nclass = cls3", fillcolor="#5aade9"] ;
2 -> 3 ;
4 [label="f5 <= 6.5\ngini = 0.0178\nsamples = 33407\nvalue = [266.0, 79.0, 0.0, 52491.0, 121.0, 9.0]\nclass = cls3", fillcolor="#3b9ee5"] ;
3 -> 4 ;
5 [label="f4 <= 47.5\ngini = 0.0139\nsamples = 33338\nvalue = [252.0, 79.0, 0.0, 52491.0, 28.0, 9.0]\nclass = cls3", fillcolor="#3a9ee5"] ;
4 -> 5 ;
6 [label="gini = 0.6284\nsamples = 266\nvalue = [204, 78, 0, 146, 0, 3]\nclass = cls0", fillcolor="#fae5d7"] ;
5 -> 6 ;
7 [label="gini = 0.0032\nsamples = 33072\nvalue = [48.0, 1.0, 0.0, 52345.0, 28.0, 6.0]\nclass = cls3", fillcolor="#399de5"] ;
5 -> 7 ;
8 [label="f7 <= 146.0\ngini = 0.2274\nsamples = 69\nvalue = [14.0, 0.0, 0.0, 0.0, 93.0, 0.0]\nclass = cls4", fillcolor="#9457e9"] ;
4 -> 8 ;
9 [label="gini = 0.0\nsamples = 19\nvalue = [0, 0, 0, 0, 29, 0]\nclass = cls4", fillcolor="#8139e5"] ;
8 -> 9 ;
10 [label="gini = 0.2945\nsamples = 50\nvalue = [14, 0, 0, 0, 64, 0]\nclass = cls4", fillcolor="#9d64eb"] ;
8 -> 10 ;
11 [label="f5 <= 7.5\ngini = 0.5306\nsamples = 5695\nvalue = [5635, 2548, 0, 232, 528, 124]\nclass = cls0", fillcolor="#f3c3a1"] ;
3 -> 11 ;
12 [label="f4 <= 70.0\ngini = 0.4756\nsamples = 5215\nvalue = [5471, 2480, 0, 228, 1, 123]\nclass = cls0", fillcolor="#f2be99"] ;
11 -> 12 ;
13 [label="gini = 0.5143\nsamples = 2554\nvalue = [1373.0, 2463.0, 0.0, 120.0, 1.0, 95.0]\nclass = cls1", fillcolor="#d7f4ae"] ;
12 -> 13 ;
14 [label="gini = 0.07\nsamples = 2661\nvalue = [4098, 17, 0, 108, 0, 28]\nclass = cls0", fillcolor="#e68640"] ;
12 -> 14 ;
15 [label="f9 <= 62.0\ngini = 0.4702\nsamples = 480\nvalue = [164, 68, 0, 4, 527, 1]\nclass = cls4", fillcolor="#b387ef"] ;
11 -> 15 ;
16 [label="gini = 0.5447\nsamples = 372\nvalue = [158, 68, 0, 4, 359, 1]\nclass = cls4", fillcolor="#c4a3f3"] ;
15 -> 16 ;
17 [label="gini = 0.0666\nsamples = 108\nvalue = [6, 0, 0, 0, 168, 0]\nclass = cls4", fillcolor="#8640e6"] ;
15 -> 17 ;
18 [label="f9 <= 1389.5\ngini = 0.6272\nsamples = 8820\nvalue = [7337, 3541, 0, 2279, 533, 196]\nclass = cls0", fillcolor="#f5d1b6"] ;
2 -> 18 ;
19 [label="f5 <= 6.5\ngini = 0.5589\nsamples = 7761\nvalue = [7279.0, 3500.0, 0.0, 790.0, 508.0, 169.0]\nclass = cls0", fillcolor="#f4c9a9"] ;
18 -> 19 ;
20 [label="f4 <= 69.5\ngini = 0.5065\nsamples = 7131\nvalue = [7102.0, 3441.0, 0.0, 578.0, 8.0, 137.0]\nclass = cls0", fillcolor="#f3c4a2"] ;
19 -> 20 ;
21 [label="gini = 0.5503\nsamples = 3716\nvalue = [1847, 3411, 0, 440, 8, 118]\nclass = cls1", fillcolor="#d8f5b1"] ;
20 -> 21 ;
22 [label="gini = 0.0669\nsamples = 3415\nvalue = [5255.0, 30.0, 0.0, 138.0, 0.0, 19.0]\nclass = cls0", fillcolor="#e68540"] ;
20 -> 22 ;
23 [label="f3 <= 1.0\ngini = 0.6556\nsamples = 630\nvalue = [177, 59, 0, 212, 500, 32]\nclass = cls4", fillcolor="#d0b5f5"] ;
19 -> 23 ;
24 [label="gini = 0.583\nsamples = 65\nvalue = [38.0, 53.0, 0.0, 0.0, 2.0, 9.0]\nclass = cls1", fillcolor="#e8f9d1"] ;
23 -> 24 ;
25 [label="gini = 0.5942\nsamples = 565\nvalue = [139, 6, 0, 212, 498, 23]\nclass = cls4", fillcolor="#c9aaf4"] ;
23 -> 25 ;
26 [label="f7 <= 301.0\ngini = 0.1733\nsamples = 1059\nvalue = [58.0, 41.0, 0.0, 1489.0, 25.0, 27.0]\nclass = cls3", fillcolor="#4ca6e7"] ;
18 -> 26 ;
27 [label="gini = 0.0\nsamples = 959\nvalue = [0, 0, 0, 1489, 0, 0]\nclass = cls3", fillcolor="#399de5"] ;
26 -> 27 ;
28 [label="f3 <= 1.0\ngini = 0.7194\nsamples = 100\nvalue = [58.0, 41.0, 0.0, 0.0, 25.0, 27.0]\nclass = cls0", fillcolor="#fbece0"] ;
26 -> 28 ;
29 [label="gini = 0.6622\nsamples = 58\nvalue = [32, 36, 0, 0, 0, 27]\nclass = cls1", fillcolor="#f9fdf2"] ;
28 -> 29 ;
30 [label="gini = 0.5772\nsamples = 42\nvalue = [26, 5, 0, 0, 25, 0]\nclass = cls0", fillcolor="#fefbf9"] ;
28 -> 30 ;
31 [label="f5 <= 5.5\ngini = 0.1312\nsamples = 542934\nvalue = [28311.0, 2132.0, 800084.0, 28659.0, 14.0, 279.0]\nclass = cls2", fillcolor="#47e78a"] ;
1 -> 31 ;
32 [label="f7 <= 32921.5\ngini = 0.1244\nsamples = 540595\nvalue = [27983.0, 2081.0, 799864.0, 25603.0, 14.0, 213.0]\nclass = cls2", fillcolor="#46e78a"] ;
31 -> 32 ;
33 [label="f7 <= 255.5\ngini = 0.0791\nsamples = 526782\nvalue = [23030.0, 1817.0, 799864.0, 8964.0, 14.0, 203.0]\nclass = cls2", fillcolor="#41e686"] ;
32 -> 33 ;
34 [label="f9 <= 40.5\ngini = 0.0301\nsamples = 6999\nvalue = [11011, 0, 89, 70, 0, 11]\nclass = cls0", fillcolor="#e5833c"] ;
33 -> 34 ;
35 [label="gini = 0.0787\nsamples = 2122\nvalue = [3242, 0, 61, 65, 0, 11]\nclass = cls0", fillcolor="#e68641"] ;
34 -> 35 ;
36 [label="gini = 0.0084\nsamples = 4877\nvalue = [7769, 0, 28, 5, 0, 0]\nclass = cls0", fillcolor="#e5823a"] ;
34 -> 36 ;
37 [label="f6 <= 16.5\ngini = 0.0546\nsamples = 519783\nvalue = [12019, 1817, 799775, 8894, 14, 192]\nclass = cls2", fillcolor="#3fe685"] ;
33 -> 37 ;
38 [label="gini = 0.0359\nsamples = 499418\nvalue = [5355, 564, 776153, 8354, 11, 87]\nclass = cls2", fillcolor="#3de583"] ;
37 -> 38 ;
39 [label="gini = 0.4167\nsamples = 20365\nvalue = [6664, 1253, 23622, 540, 3, 105]\nclass = cls2", fillcolor="#7beeab"] ;
37 -> 39 ;
40 [label="f3 <= 1.0\ngini = 0.3695\nsamples = 13813\nvalue = [4953, 264, 0, 16639, 0, 10]\nclass = cls3", fillcolor="#76bbed"] ;
32 -> 40 ;
41 [label="f4 <= 232.0\ngini = 0.5\nsamples = 2\nvalue = [1, 0, 0, 1, 0, 0]\nclass = cls0", fillcolor="#ffffff"] ;
40 -> 41 ;
42 [label="gini = 0.0\nsamples = 1\nvalue = [0, 0, 0, 1, 0, 0]\nclass = cls3", fillcolor="#399de5"] ;
41 -> 42 ;
43 [label="gini = 0.0\nsamples = 1\nvalue = [1, 0, 0, 0, 0, 0]\nclass = cls0", fillcolor="#e58139"] ;
41 -> 43 ;
44 [label="f9 <= 40.5\ngini = 0.3695\nsamples = 13811\nvalue = [4952, 264, 0, 16638, 0, 10]\nclass = cls3", fillcolor="#76bbed"] ;
40 -> 44 ;
45 [label="gini = 0.2424\nsamples = 12232\nvalue = [2597, 103, 0, 16613, 0, 6]\nclass = cls3", fillcolor="#59ade9"] ;
44 -> 45 ;
46 [label="gini = 0.1396\nsamples = 1579\nvalue = [2355.0, 161.0, 0.0, 25.0, 0.0, 4.0]\nclass = cls0", fillcolor="#e78b49"] ;
44 -> 46 ;
47 [label="f6 <= 9.0\ngini = 0.3137\nsamples = 2339\nvalue = [328, 51, 220, 3056, 0, 66]\nclass = cls3", fillcolor="#60b0ea"] ;
31 -> 47 ;
48 [label="f7 <= 36863.5\ngini = 0.6715\nsamples = 326\nvalue = [198, 49, 11, 222, 0, 55]\nclass = cls3", fillcolor="#f1f8fd"] ;
47 -> 48 ;
49 [label="f9 <= 50.0\ngini = 0.6609\nsamples = 293\nvalue = [156, 46, 3, 222, 0, 55]\nclass = cls3", fillcolor="#d7ebfa"] ;
48 -> 49 ;
50 [label="gini = 0.6172\nsamples = 9\nvalue = [3, 0, 0, 5, 0, 8]\nclass = cls5", fillcolor="#f8c9e4"] ;
49 -> 50 ;
51 [label="gini = 0.6554\nsamples = 284\nvalue = [153, 46, 3, 217, 0, 47]\nclass = cls3", fillcolor="#d7ebfa"] ;
49 -> 51 ;
52 [label="gini = 0.346\nsamples = 33\nvalue = [42, 3, 8, 0, 0, 0]\nclass = cls0", fillcolor="#eba069"] ;
48 -> 52 ;
53 [label="f7 <= 16473.5\ngini = 0.2028\nsamples = 2013\nvalue = [130.0, 2.0, 209.0, 2834.0, 0.0, 11.0]\nclass = cls3", fillcolor="#50a9e8"] ;
47 -> 53 ;
54 [label="f7 <= 257.0\ngini = 0.4447\nsamples = 112\nvalue = [130, 0, 4, 40, 0, 9]\nclass = cls0", fillcolor="#efb082"] ;
53 -> 54 ;
55 [label="gini = 0.1078\nsamples = 63\nvalue = [99, 0, 0, 6, 0, 0]\nclass = cls0", fillcolor="#e78945"] ;
54 -> 55 ;
56 [label="gini = 0.6361\nsamples = 49\nvalue = [31.0, 0.0, 4.0, 34.0, 0.0, 9.0]\nclass = cls3", fillcolor="#f2f9fd"] ;
54 -> 56 ;
57 [label="f9 <= 56.0\ngini = 0.1297\nsamples = 1901\nvalue = [0.0, 2.0, 205.0, 2794.0, 0.0, 2.0]\nclass = cls3", fillcolor="#48a4e7"] ;
53 -> 57 ;
58 [label="gini = 0.1785\nsamples = 1346\nvalue = [0, 2, 205, 1905, 0, 2]\nclass = cls3", fillcolor="#4fa8e8"] ;
57 -> 58 ;
59 [label="gini = 0.0\nsamples = 555\nvalue = [0, 0, 0, 889, 0, 0]\nclass = cls3", fillcolor="#399de5"] ;
57 -> 59 ;
60 [label="f3 <= 1.0\ngini = 0.6465\nsamples = 152494\nvalue = [42104.0, 16416.0, 151.0, 2763.0, 124332.0, 55703.0]\nclass = cls4", fillcolor="#d0b6f5"] ;
0 -> 60 [labeldistance=2.5, labelangle=-45, headlabel="False"] ;
61 [label="f4 <= 127.5\ngini = 0.6042\nsamples = 73468\nvalue = [35413, 13927, 129, 2681, 62412, 1738]\nclass = cls4", fillcolor="#d5bdf6"] ;
60 -> 61 ;
62 [label="f4 <= 79.5\ngini = 0.5101\nsamples = 15151\nvalue = [15296.0, 6451.0, 49.0, 1178.0, 54.0, 775.0]\nclass = cls0", fillcolor="#f2bf9a"] ;
61 -> 62 ;
63 [label="f9 <= 56.5\ngini = 0.441\nsamples = 14089\nvalue = [15235.0, 6409.0, 14.0, 152.0, 54.0, 246.0]\nclass = cls0", fillcolor="#f0b890"] ;
62 -> 63 ;
64 [label="f4 <= 55.0\ngini = 0.4894\nsamples = 7827\nvalue = [7245, 4995, 0, 12, 0, 64]\nclass = cls0", fillcolor="#f7d8c2"] ;
63 -> 64 ;
65 [label="gini = 0.4869\nsamples = 7740\nvalue = [7245.0, 4854.0, 0.0, 12.0, 0.0, 64.0]\nclass = cls0", fillcolor="#f7d6be"] ;
64 -> 65 ;
66 [label="gini = 0.0\nsamples = 87\nvalue = [0, 141, 0, 0, 0, 0]\nclass = cls1", fillcolor="#9de539"] ;
64 -> 66 ;
67 [label="f4 <= 63.5\ngini = 0.313\nsamples = 6262\nvalue = [7990, 1414, 14, 140, 54, 182]\nclass = cls0", fillcolor="#eb9c64"] ;
63 -> 67 ;
68 [label="gini = 0.1538\nsamples = 4524\nvalue = [6528.0, 188.0, 14.0, 140.0, 54.0, 180.0]\nclass = cls0", fillcolor="#e78b49"] ;
67 -> 68 ;
69 [label="gini = 0.4969\nsamples = 1738\nvalue = [1462, 1226, 0, 0, 0, 2]\nclass = cls0", fillcolor="#fbebdf"] ;
67 -> 69 ;
70 [label="f8 <= 308.5\ngini = 0.5328\nsamples = 1062\nvalue = [61.0, 42.0, 35.0, 1026.0, 0.0, 529.0]\nclass = cls3", fillcolor="#aad5f4"] ;
62 -> 70 ;
71 [label="f2 <= 2.5\ngini = 0.6002\nsamples = 753\nvalue = [61, 42, 35, 580, 0, 501]\nclass = cls3", fillcolor="#e9f4fc"] ;
70 -> 71 ;
72 [label="gini = 0.6018\nsamples = 742\nvalue = [61.0, 42.0, 35.0, 568.0, 0.0, 494.0]\nclass = cls3", fillcolor="#eaf5fc"] ;
71 -> 72 ;
73 [label="gini = 0.4654\nsamples = 11\nvalue = [0, 0, 0, 12, 0, 7]\nclass = cls3", fillcolor="#acd6f4"] ;
71 -> 73 ;
74 [label="f9 <= 374.5\ngini = 0.1112\nsamples = 309\nvalue = [0, 0, 0, 446, 0, 28]\nclass = cls3", fillcolor="#45a3e7"] ;
70 -> 74 ;
75 [label="gini = 0.32\nsamples = 92\nvalue = [0, 0, 0, 112, 0, 28]\nclass = cls3", fillcolor="#6ab6ec"] ;
74 -> 75 ;
76 [label="gini = 0.0\nsamples = 217\nvalue = [0, 0, 0, 334, 0, 0]\nclass = cls3", fillcolor="#399de5"] ;
74 -> 76 ;
77 [label="f8 <= 98.5\ngini = 0.4913\nsamples = 58317\nvalue = [20117, 7476, 80, 1503, 62358, 963]\nclass = cls4", fillcolor="#b58bf0"] ;
61 -> 77 ;
78 [label="f9 <= 48.5\ngini = 0.4738\nsamples = 13806\nvalue = [14357, 6750, 3, 560, 36, 180]\nclass = cls0", fillcolor="#f2c09b"] ;
77 -> 78 ;
79 [label="f8 <= 27.0\ngini = 0.4949\nsamples = 361\nvalue = [109, 60, 0, 394, 0, 19]\nclass = cls3", fillcolor="#88c4ef"] ;
78 -> 79 ;
80 [label="gini = 0.4643\nsamples = 112\nvalue = [109.0, 60.0, 0.0, 1.0, 0.0, 0.0]\nclass = cls0", fillcolor="#f3c7a7"] ;
79 -> 80 ;
81 [label="gini = 0.088\nsamples = 249\nvalue = [0, 0, 0, 393, 0, 19]\nclass = cls3", fillcolor="#43a2e6"] ;
79 -> 81 ;
82 [label="f8 <= 55.5\ngini = 0.454\nsamples = 13445\nvalue = [14248, 6690, 3, 166, 36, 161]\nclass = cls0", fillcolor="#f2be99"] ;
78 -> 82 ;
83 [label="gini = 0.2558\nsamples = 2819\nvalue = [3759, 533, 0, 78, 0, 32]\nclass = cls0", fillcolor="#e9965a"] ;
82 -> 83 ;
84 [label="gini = 0.4821\nsamples = 10626\nvalue = [10489.0, 6157.0, 3.0, 88.0, 36.0, 129.0]\nclass = cls0", fillcolor="#f5ccaf"] ;
82 -> 84 ;
85 [label="f8 <= 1190.5\ngini = 0.2139\nsamples = 44511\nvalue = [5760, 726, 77, 943, 62322, 783]\nclass = cls4", fillcolor="#9152e8"] ;
77 -> 85 ;
86 [label="f9 <= 818.5\ngini = 0.1841\nsamples = 43587\nvalue = [4343, 726, 77, 943, 62322, 769]\nclass = cls4", fillcolor="#8e4ee8"] ;
85 -> 86 ;
87 [label="gini = 0.4994\nsamples = 12446\nvalue = [3891.0, 726.0, 77.0, 943.0, 13349.0, 769.0]\nclass = cls4", fillcolor="#b489ef"] ;
86 -> 87 ;
88 [label="gini = 0.0181\nsamples = 31141\nvalue = [452, 0, 0, 0, 48973, 0]\nclass = cls4", fillcolor="#823be5"] ;
86 -> 88 ;
89 [label="f8 <= 1357.5\ngini = 0.0194\nsamples = 924\nvalue = [1417, 0, 0, 0, 0, 14]\nclass = cls0", fillcolor="#e5823b"] ;
85 -> 89 ;
90 [label="gini = 0.0\nsamples = 27\nvalue = [38, 0, 0, 0, 0, 0]\nclass = cls0", fillcolor="#e58139"] ;
89 -> 90 ;
91 [label="gini = 0.0199\nsamples = 897\nvalue = [1379, 0, 0, 0, 0, 14]\nclass = cls0", fillcolor="#e5823b"] ;
89 -> 91 ;
92 [label="f4 <= 91.0\ngini = 0.5661\nsamples = 79026\nvalue = [6691, 2489, 22, 82, 61920, 53965]\nclass = cls4", fillcolor="#f1e9fc"] ;
60 -> 92 ;
93 [label="f4 <= 63.5\ngini = 0.0663\nsamples = 40562\nvalue = [1316, 705, 18, 65, 61920, 77]\nclass = cls4", fillcolor="#8540e6"] ;
92 -> 93 ;
94 [label="f4 <= 49.5\ngini = 0.3577\nsamples = 499\nvalue = [641, 3, 18, 65, 6, 77]\nclass = cls0", fillcolor="#eb9e67"] ;
93 -> 94 ;
95 [label="f4 <= 18.5\ngini = 0.7307\nsamples = 138\nvalue = [65, 3, 18, 65, 6, 77]\nclass = cls5", fillcolor="#fdf1f8"] ;
94 -> 95 ;
96 [label="gini = 0.1975\nsamples = 28\nvalue = [48, 0, 0, 0, 6, 0]\nclass = cls0", fillcolor="#e89152"] ;
95 -> 96 ;
97 [label="gini = 0.6674\nsamples = 110\nvalue = [17, 3, 18, 65, 0, 77]\nclass = cls5", fillcolor="#fceaf5"] ;
95 -> 97 ;
98 [label="gini = 0.0\nsamples = 361\nvalue = [576, 0, 0, 0, 0, 0]\nclass = cls0", fillcolor="#e58139"] ;
94 -> 98 ;
99 [label="f4 <= 72.0\ngini = 0.0428\nsamples = 40063\nvalue = [675, 702, 0, 0, 61914, 0]\nclass = cls4", fillcolor="#843de6"] ;
93 -> 99 ;
100 [label="f8 <= 53.0\ngini = 0.0428\nsamples = 40043\nvalue = [675, 702, 0, 0, 61880, 0]\nclass = cls4", fillcolor="#843de6"] ;
99 -> 100 ;
101 [label="gini = 0.5252\nsamples = 302\nvalue = [97, 295, 0, 0, 70, 0]\nclass = cls1", fillcolor="#caf194"] ;
100 -> 101 ;
102 [label="gini = 0.031\nsamples = 39741\nvalue = [578, 407, 0, 0, 61810, 0]\nclass = cls4", fillcolor="#833ce5"] ;
100 -> 102 ;
103 [label="gini = 0.0\nsamples = 20\nvalue = [0, 0, 0, 0, 34, 0]\nclass = cls4", fillcolor="#8139e5"] ;
99 -> 103 ;
104 [label="f9 <= 110.5\ngini = 0.2127\nsamples = 38464\nvalue = [5375.0, 1784.0, 4.0, 17.0, 0.0, 53888.0]\nclass = cls5", fillcolor="#e853aa"] ;
92 -> 104 ;
105 [label="f4 <= 233.5\ngini = 0.6393\nsamples = 4289\nvalue = [3004, 1412, 1, 4, 0, 2359]\nclass = cls0", fillcolor="#fbede2"] ;
104 -> 105 ;
106 [label="f4 <= 127.5\ngini = 0.0338\nsamples = 1523\nvalue = [31.0, 6.0, 0.0, 4.0, 0.0, 2349.0]\nclass = cls5", fillcolor="#e53c9f"] ;
105 -> 106 ;
107 [label="gini = 0.6505\nsamples = 14\nvalue = [7, 6, 0, 4, 0, 0]\nclass = cls0", fillcolor="#fdf4ed"] ;
106 -> 107 ;
108 [label="gini = 0.02\nsamples = 1509\nvalue = [24.0, 0.0, 0.0, 0.0, 0.0, 2349.0]\nclass = cls5", fillcolor="#e53b9e"] ;
106 -> 108 ;
109 [label="f4 <= 254.5\ngini = 0.4388\nsamples = 2766\nvalue = [2973, 1406, 1, 0, 0, 10]\nclass = cls0", fillcolor="#f1bd97"] ;
105 -> 109 ;
110 [label="gini = 0.2437\nsamples = 616\nvalue = [817, 134, 1, 0, 0, 0]\nclass = cls0", fillcolor="#e9965a"] ;
109 -> 110 ;
111 [label="gini = 0.4698\nsamples = 2150\nvalue = [2156, 1272, 0, 0, 0, 10]\nclass = cls0", fillcolor="#f4ccae"] ;
109 -> 111 ;
112 [label="f4 <= 191.0\ngini = 0.0971\nsamples = 34175\nvalue = [2371, 372, 3, 13, 0, 51529]\nclass = cls5", fillcolor="#e644a2"] ;
104 -> 112 ;
113 [label="f4 <= 127.5\ngini = 0.0077\nsamples = 32306\nvalue = [114, 69, 3, 13, 0, 51158]\nclass = cls5", fillcolor="#e53a9d"] ;
112 -> 113 ;
114 [label="gini = 0.52\nsamples = 324\nvalue = [102, 69, 1, 12, 0, 345]\nclass = cls5", fillcolor="#f08ec7"] ;
113 -> 114 ;
115 [label="gini = 0.0006\nsamples = 31982\nvalue = [12, 0, 2, 1, 0, 50813]\nclass = cls5", fillcolor="#e5399d"] ;
113 -> 115 ;
116 [label="f4 <= 254.5\ngini = 0.3803\nsamples = 1869\nvalue = [2257, 303, 0, 0, 0, 371]\nclass = cls0", fillcolor="#eca26d"] ;
112 -> 116 ;
117 [label="gini = 0.21\nsamples = 1585\nvalue = [2194, 297, 0, 0, 0, 0]\nclass = cls0", fillcolor="#e99254"] ;
116 -> 117 ;
118 [label="gini = 0.2684\nsamples = 284\nvalue = [63, 6, 0, 0, 0, 371]\nclass = cls5", fillcolor="#ea5daf"] ;
116 -> 118 ;
}