digraph Tree {
node [shape=box, style="filled, rounded", color="black", fontname="helvetica"] ;
edge [fontname="helvetica"] ;
0 [label="f6 <= 10.0\ngini = 0.513\nsamples = 743993\nvalue = [83945.0, 24599.0, 800342.0, 86935.0, 125279.0, 55767.0]\nclass = cls2", fillcolor="#80eeae"] ;
1 [label="f4 <= 63.5\ngini = 0.6477\nsamples = 152527\nvalue = [42322, 16418, 168, 3116, 124084, 55190]\nclass = cls4", fillcolor="#d0b6f5"] ;
0 -> 1 [labeldistance=2.5, labelangle=45, headlabel="True"] ;
2 [label="f8 <= 31.0\ngini = 0.4234\nsamples = 12897\nvalue = [14611.0, 5062.0, 41.0, 239.0, 75.0, 344.0]\nclass = cls0", fillcolor="#efb084"] ;
1 -> 2 ;
3 [label="f5 <= 2.5\ngini = 0.4898\nsamples = 7822\nvalue = [7317, 4878, 0, 31, 7, 79]\nclass = cls0", fillcolor="#f6d6be"] ;
2 -> 3 ;
4 [label="f3 <= 1.0\ngini = 0.4874\nsamples = 7737\nvalue = [7282.0, 4803.0, 0.0, 25.0, 0.0, 74.0]\nclass = cls0", fillcolor="#f6d5bc"] ;
3 -> 4 ;
5 [label="f4 <= 21.5\ngini = 0.4876\nsamples = 7725\nvalue = [7262.0, 4803.0, 0.0, 25.0, 0.0, 74.0]\nclass = cls0", fillcolor="#f6d5bd"] ;
4 -> 5 ;
6 [label="gini = 0.4877\nsamples = 7719\nvalue = [7254.0, 4803.0, 0.0, 25.0, 0.0, 74.0]\nclass = cls0", fillcolor="#f6d5bd"] ;
5 -> 6 ;
7 [label="gini = 0.0\nsamples = 6\nvalue = [8, 0, 0, 0, 0, 0]\nclass = cls0", fillcolor="#e58139"] ;
5 -> 7 ;
8 [label="gini = 0.0\nsamples = 12\nvalue = [20, 0, 0, 0, 0, 0]\nclass = cls0", fillcolor="#e58139"] ;
4 -> 8 ;
9 [label="f4 <= 46.5\ngini = 0.5752\nsamples = 85\nvalue = [35, 75, 0, 6, 7, 5]\nclass = cls1", fillcolor="#d5f4aa"] ;
3 -> 9 ;
10 [label="f7 <= 1536.0\ngini = 0.4078\nsamples = 69\nvalue = [16, 75, 0, 4, 0, 5]\nclass = cls1", fillcolor="#baed74"] ;
9 -> 10 ;
11 [label="gini = 0.18\nsamples = 58\nvalue = [2, 75, 0, 4, 0, 2]\nclass = cls1", fillcolor="#a7e84d"] ;
10 -> 11 ;
12 [label="gini = 0.2907\nsamples = 11\nvalue = [14, 0, 0, 0, 0, 3]\nclass = cls0", fillcolor="#eb9c63"] ;
10 -> 12 ;
13 [label="f4 <= 54.0\ngini = 0.4719\nsamples = 16\nvalue = [19, 0, 0, 2, 7, 0]\nclass = cls0", fillcolor="#f0b78e"] ;
9 -> 13 ;
14 [label="gini = 0.42\nsamples = 6\nvalue = [3, 0, 0, 0, 7, 0]\nclass = cls4", fillcolor="#b78ef0"] ;
13 -> 14 ;
15 [label="gini = 0.1975\nsamples = 10\nvalue = [16, 0, 0, 2, 0, 0]\nclass = cls0", fillcolor="#e89152"] ;
13 -> 15 ;
16 [label="f4 <= 41.5\ngini = 0.1787\nsamples = 5075\nvalue = [7294, 184, 41, 208, 68, 265]\nclass = cls0", fillcolor="#e88d4c"] ;
2 -> 16 ;
17 [label="f3 <= 1.0\ngini = 0.6401\nsamples = 465\nvalue = [391.0, 144.0, 14.0, 51.0, 5.0, 126.0]\nclass = cls0", fillcolor="#f4caac"] ;
16 -> 17 ;
18 [label="f4 <= 27.5\ngini = 0.6007\nsamples = 397\nvalue = [356, 144, 11, 29, 0, 84]\nclass = cls0", fillcolor="#f4c7a8"] ;
17 -> 18 ;
19 [label="gini = 0.3848\nsamples = 307\nvalue = [353.0, 124.0, 0.0, 0.0, 0.0, 0.0]\nclass = cls0", fillcolor="#eead7f"] ;
18 -> 19 ;
20 [label="gini = 0.61\nsamples = 90\nvalue = [3.0, 20.0, 11.0, 29.0, 0.0, 84.0]\nclass = cls5", fillcolor="#f3a3d1"] ;
18 -> 20 ;
21 [label="f4 <= 18.0\ngini = 0.6937\nsamples = 68\nvalue = [35, 0, 3, 22, 5, 42]\nclass = cls5", fillcolor="#fcecf5"] ;
17 -> 21 ;
22 [label="gini = 0.2637\nsamples = 24\nvalue = [27, 0, 0, 0, 5, 0]\nclass = cls0", fillcolor="#ea985e"] ;
21 -> 22 ;
23 [label="gini = 0.5874\nsamples = 44\nvalue = [8.0, 0.0, 3.0, 22.0, 0.0, 42.0]\nclass = cls5", fillcolor="#f5b4da"] ;
21 -> 23 ;
24 [label="f8 <= 65.5\ngini = 0.1119\nsamples = 4610\nvalue = [6903, 40, 27, 157, 63, 139]\nclass = cls0", fillcolor="#e78845"] ;
16 -> 24 ;
25 [label="f8 <= 37.5\ngini = 0.0142\nsamples = 1683\nvalue = [2643, 0, 0, 0, 0, 19]\nclass = cls0", fillcolor="#e5823a"] ;
24 -> 25 ;
26 [label="gini = 0.1254\nsamples = 70\nvalue = [111, 0, 0, 0, 0, 8]\nclass = cls0", fillcolor="#e78a47"] ;
25 -> 26 ;
27 [label="gini = 0.0086\nsamples = 1613\nvalue = [2532, 0, 0, 0, 0, 11]\nclass = cls0", fillcolor="#e5823a"] ;
25 -> 27 ;
28 [label="f3 <= 1.0\ngini = 0.1647\nsamples = 2927\nvalue = [4260.0, 40.0, 27.0, 157.0, 63.0, 120.0]\nclass = cls0", fillcolor="#e78c4b"] ;
24 -> 28 ;
29 [label="gini = 0.1329\nsamples = 2869\nvalue = [4259, 40, 15, 120, 63, 80]\nclass = cls0", fillcolor="#e78a47"] ;
28 -> 29 ;
30 [label="gini = 0.6156\nsamples = 58\nvalue = [1, 0, 12, 37, 0, 40]\nclass = cls5", fillcolor="#fef4f9"] ;
28 -> 30 ;
31 [label="f9 <= 117.5\ngini = 0.6048\nsamples = 139630\nvalue = [27711, 11356, 127, 2877, 124009, 54846]\nclass = cls4", fillcolor="#cbadf4"] ;
1 -> 31 ;
32 [label="f8 <= 90.5\ngini = 0.6246\nsamples = 60347\nvalue = [18596.0, 9548.0, 13.0, 884.0, 13402.0, 52806.0]\nclass = cls5", fillcolor="#f3a7d3"] ;
31 -> 32 ;
33 [label="f3 <= 1.0\ngini = 0.6955\nsamples = 27021\nvalue = [17092.0, 8617.0, 13.0, 884.0, 13360.0, 2638.0]\nclass = cls0", fillcolor="#fcefe6"] ;
32 -> 33 ;
34 [label="f0 <= 11.5\ngini = 0.4869\nsamples = 13603\nvalue = [13797.0, 6853.0, 2.0, 639.0, 1.0, 236.0]\nclass = cls0", fillcolor="#f3c3a1"] ;
33 -> 34 ;
35 [label="gini = 0.1172\nsamples = 10\nvalue = [15, 0, 0, 1, 0, 0]\nclass = cls0", fillcolor="#e78946"] ;
34 -> 35 ;
36 [label="gini = 0.4871\nsamples = 13593\nvalue = [13782.0, 6853.0, 2.0, 638.0, 1.0, 236.0]\nclass = cls0", fillcolor="#f3c3a1"] ;
34 -> 36 ;
37 [label="f4 <= 89.5\ngini = 0.5537\nsamples = 13418\nvalue = [3295.0, 1764.0, 11.0, 245.0, 13359.0, 2402.0]\nclass = cls4", fillcolor="#b88ff0"] ;
33 -> 37 ;
38 [label="gini = 0.0674\nsamples = 8821\nvalue = [120, 360, 0, 0, 13359, 0]\nclass = cls4", fillcolor="#8540e6"] ;
37 -> 38 ;
39 [label="gini = 0.6586\nsamples = 4597\nvalue = [3175, 1404, 11, 245, 0, 2402]\nclass = cls0", fillcolor="#fbebdf"] ;
37 -> 39 ;
40 [label="f8 <= 91.5\ngini = 0.0908\nsamples = 33326\nvalue = [1504.0, 931.0, 0.0, 0.0, 42.0, 50168.0]\nclass = cls5", fillcolor="#e643a2"] ;
32 -> 40 ;
41 [label="f4 <= 191.5\ngini = 0.0003\nsamples = 31751\nvalue = [0, 5, 0, 0, 3, 50167]\nclass = cls5", fillcolor="#e5399d"] ;
40 -> 41 ;
42 [label="gini = 0.0001\nsamples = 31749\nvalue = [0, 0, 0, 0, 3, 50167]\nclass = cls5", fillcolor="#e5399d"] ;
41 -> 42 ;
43 [label="gini = 0.0\nsamples = 2\nvalue = [0, 5, 0, 0, 0, 0]\nclass = cls1", fillcolor="#9de539"] ;
41 -> 43 ;
44 [label="f3 <= 1.0\ngini = 0.4884\nsamples = 1575\nvalue = [1504.0, 926.0, 0.0, 0.0, 39.0, 1.0]\nclass = cls0", fillcolor="#f5d0b5"] ;
40 -> 44 ;
45 [label="gini = 0.4867\nsamples = 1570\nvalue = [1500, 926, 0, 0, 34, 1]\nclass = cls0", fillcolor="#f5d0b5"] ;
44 -> 45 ;
46 [label="gini = 0.4938\nsamples = 5\nvalue = [4, 0, 0, 0, 5, 0]\nclass = cls4", fillcolor="#e6d7fa"] ;
44 -> 46 ;
47 [label="f2 <= 1.5\ngini = 0.2195\nsamples = 79283\nvalue = [9115.0, 1808.0, 114.0, 1993.0, 110607.0, 2040.0]\nclass = cls4", fillcolor="#9153e8"] ;
31 -> 47 ;
48 [label="f4 <= 180.5\ngini = 0.2193\nsamples = 79276\nvalue = [9106.0, 1805.0, 114.0, 1992.0, 110607.0, 2040.0]\nclass = cls4", fillcolor="#9153e8"] ;
47 -> 48 ;
49 [label="f3 <= 1.0\ngini = 0.1829\nsamples = 77376\nvalue = [6849, 1441, 114, 1984, 110607, 1646]\nclass = cls4", fillcolor="#8e4ee8"] ;
48 -> 49 ;
50 [label="gini = 0.2595\nsamples = 45733\nvalue = [6144.0, 983.0, 112.0, 1973.0, 62156.0, 1275.0]\nclass = cls4", fillcolor="#9558e9"] ;
49 -> 50 ;
51 [label="gini = 0.0606\nsamples = 31643\nvalue = [705, 458, 2, 11, 48451, 371]\nclass = cls4", fillcolor="#853fe6"] ;
49 -> 51 ;
52 [label="f8 <= 126.5\ngini = 0.4111\nsamples = 1900\nvalue = [2257, 364, 0, 8, 0, 394]\nclass = cls0", fillcolor="#eda673"] ;
48 -> 52 ;
53 [label="gini = 0.2466\nsamples = 1109\nvalue = [1509, 238, 0, 5, 0, 8]\nclass = cls0", fillcolor="#e9965a"] ;
52 -> 53 ;
54 [label="gini = 0.5459\nsamples = 791\nvalue = [748, 126, 0, 3, 0, 386]\nclass = cls0", fillcolor="#f4cbad"] ;
52 -> 54 ;
55 [label="f8 <= 246.5\ngini = 0.4615\nsamples = 7\nvalue = [9, 3, 0, 1, 0, 0]\nclass = cls0", fillcolor="#efb388"] ;
47 -> 55 ;
56 [label="gini = 0.0\nsamples = 1\nvalue = [0, 0, 0, 1, 0, 0]\nclass = cls3", fillcolor="#399de5"] ;
55 -> 56 ;
57 [label="f9 <= 328.5\ngini = 0.375\nsamples = 6\nvalue = [9, 3, 0, 0, 0, 0]\nclass = cls0", fillcolor="#eeab7b"] ;
55 -> 57 ;
58 [label="gini = 0.4444\nsamples = 3\nvalue = [6, 3, 0, 0, 0, 0]\nclass = cls0", fillcolor="#f2c09c"] ;
57 -> 58 ;
59 [label="gini = 0.0\nsamples = 3\nvalue = [3, 0, 0, 0, 0, 0]\nclass = cls0", fillcolor="#e58139"] ;
57 -> 59 ;
60 [label="f9 <= 1488.5\ngini = 0.2584\nsamples = 591466\nvalue = [41623.0, 8181.0, 800174.0, 83819.0, 1195.0, 577.0]\nclass = cls2", fillcolor="#58e995"] ;
0 -> 60 [labeldistance=2.5, labelangle=-45, headlabel="False"] ;
61 [label="f7 <= 250.5\ngini = 0.4834\nsamples = 270795\nvalue = [41600.0, 8128.0, 293371.0, 83812.0, 1095.0, 556.0]\nclass = cls2", fillcolor="#87efb2"] ;
60 -> 61 ;
62 [label="f7 <= 234.0\ngini = 0.0315\nsamples = 35146\nvalue = [519, 0, 59, 54671, 291, 16]\nclass = cls3", fillcolor="#3c9fe5"] ;
61 -> 62 ;
63 [label="f4 <= 58.0\ngini = 0.6981\nsamples = 711\nvalue = [423, 0, 56, 353, 291, 16]\nclass = cls0", fillcolor="#fdf4ed"] ;
62 -> 63 ;
64 [label="f4 <= 34.5\ngini = 0.5165\nsamples = 407\nvalue = [364.0, 0.0, 0.0, 278.0, 4.0, 13.0]\nclass = cls0", fillcolor="#f9e3d2"] ;
63 -> 64 ;
65 [label="gini = 0.037\nsamples = 63\nvalue = [2, 0, 0, 104, 0, 0]\nclass = cls3", fillcolor="#3d9fe6"] ;
64 -> 65 ;
66 [label="gini = 0.4719\nsamples = 344\nvalue = [362, 0, 0, 174, 4, 13]\nclass = cls0", fillcolor="#f2c09d"] ;
64 -> 66 ;
67 [label="f5 <= 6.5\ngini = 0.5893\nsamples = 304\nvalue = [59, 0, 56, 75, 287, 3]\nclass = cls4", fillcolor="#bd97f1"] ;
63 -> 67 ;
68 [label="gini = 0.6711\nsamples = 127\nvalue = [59.0, 0.0, 56.0, 75.0, 0.0, 3.0]\nclass = cls3", fillcolor="#e7f3fc"] ;
67 -> 68 ;
69 [label="gini = 0.0\nsamples = 177\nvalue = [0, 0, 0, 0, 287, 0]\nclass = cls4", fillcolor="#8139e5"] ;
67 -> 69 ;
70 [label="f9 <= 197.5\ngini = 0.0036\nsamples = 34435\nvalue = [96, 0, 3, 54318, 0, 0]\nclass = cls3", fillcolor="#399de5"] ;
62 -> 70 ;
71 [label="f9 <= 57.5\ngini = 0.4116\nsamples = 222\nvalue = [93, 0, 3, 242, 0, 0]\nclass = cls3", fillcolor="#87c3ef"] ;
70 -> 71 ;
72 [label="gini = 0.3033\nsamples = 184\nvalue = [48, 0, 3, 227, 0, 0]\nclass = cls3", fillcolor="#65b3eb"] ;
71 -> 72 ;
73 [label="gini = 0.375\nsamples = 38\nvalue = [45, 0, 0, 15, 0, 0]\nclass = cls0", fillcolor="#eeab7b"] ;
71 -> 73 ;
74 [label="f4 <= 49.5\ngini = 0.0001\nsamples = 34213\nvalue = [3, 0, 0, 54076, 0, 0]\nclass = cls3", fillcolor="#399de5"] ;
70 -> 74 ;
75 [label="gini = 0.0\nsamples = 34211\nvalue = [0, 0, 0, 54076, 0, 0]\nclass = cls3", fillcolor="#399de5"] ;
74 -> 75 ;
76 [label="gini = 0.0\nsamples = 2\nvalue = [3, 0, 0, 0, 0, 0]\nclass = cls0", fillcolor="#e58139"] ;
74 -> 76 ;
77 [label="f6 <= 16.5\ngini = 0.3629\nsamples = 235649\nvalue = [41081.0, 8128.0, 293312.0, 29141.0, 804.0, 540.0]\nclass = cls2", fillcolor="#69eb9f"] ;
61 -> 77 ;
78 [label="f7 <= 32921.5\ngini = 0.2726\nsamples = 201360\nvalue = [17102, 3092, 269724, 28037, 440, 212]\nclass = cls2", fillcolor="#5ae996"] ;
77 -> 78 ;
79 [label="f4 <= 126.0\ngini = 0.1549\nsamples = 185730\nvalue = [12392, 2071, 269724, 9059, 440, 202]\nclass = cls2", fillcolor="#4ae78c"] ;
78 -> 79 ;
80 [label="gini = 0.5469\nsamples = 3779\nvalue = [3715.0, 1536.0, 0.0, 241.0, 432.0, 95.0]\nclass = cls0", fillcolor="#f2c29f"] ;
79 -> 80 ;
81 [label="gini = 0.1202\nsamples = 181951\nvalue = [8677, 535, 269724, 8818, 8, 107]\nclass = cls2", fillcolor="#46e789"] ;
79 -> 81 ;
82 [label="f4 <= 122.0\ngini = 0.3725\nsamples = 15630\nvalue = [4710, 1021, 0, 18978, 0, 10]\nclass = cls3", fillcolor="#72b9ec"] ;
78 -> 82 ;
83 [label="gini = 0.4356\nsamples = 1856\nvalue = [2005.0, 912.0, 0.0, 13.0, 0.0, 2.0]\nclass = cls0", fillcolor="#f1bb94"] ;
82 -> 83 ;
84 [label="gini = 0.2268\nsamples = 13774\nvalue = [2705.0, 109.0, 0.0, 18965.0, 0.0, 8.0]\nclass = cls3", fillcolor="#56abe9"] ;
82 -> 84 ;
85 [label="f3 <= 1.0\ngini = 0.6086\nsamples = 34289\nvalue = [23979, 5036, 23588, 1104, 364, 328]\nclass = cls0", fillcolor="#fffdfc"] ;
77 -> 85 ;
86 [label="f6 <= 21.0\ngini = 0.4985\nsamples = 2796\nvalue = [1630, 2748, 0, 0, 2, 136]\nclass = cls1", fillcolor="#d9f5b2"] ;
85 -> 86 ;
87 [label="gini = 0.5454\nsamples = 210\nvalue = [101, 207, 0, 0, 1, 37]\nclass = cls1", fillcolor="#d5f4a9"] ;
86 -> 87 ;
88 [label="gini = 0.4937\nsamples = 2586\nvalue = [1529, 2541, 0, 0, 1, 99]\nclass = cls1", fillcolor="#d9f5b3"] ;
86 -> 88 ;
89 [label="f2 <= 1.5\ngini = 0.573\nsamples = 31493\nvalue = [22349, 2288, 23588, 1104, 362, 192]\nclass = cls2", fillcolor="#f6fef9"] ;
85 -> 89 ;
90 [label="gini = 0.5726\nsamples = 31476\nvalue = [22349, 2288, 23588, 1080, 362, 191]\nclass = cls2", fillcolor="#f6fef9"] ;
89 -> 90 ;
91 [label="gini = 0.0768\nsamples = 17\nvalue = [0, 0, 0, 24, 0, 1]\nclass = cls3", fillcolor="#41a1e6"] ;
89 -> 91 ;
92 [label="f9 <= 1534.5\ngini = 0.0008\nsamples = 320671\nvalue = [23, 53, 506803, 7, 100, 21]\nclass = cls2", fillcolor="#39e581"] ;
60 -> 92 ;
93 [label="f4 <= 96.0\ngini = 0.0001\nsamples = 320562\nvalue = [1, 0, 506803, 7, 0, 21]\nclass = cls2", fillcolor="#39e581"] ;
92 -> 93 ;
94 [label="gini = 0.0\nsamples = 5\nvalue = [0, 0, 0, 0, 0, 9]\nclass = cls5", fillcolor="#e5399d"] ;
93 -> 94 ;
95 [label="f6 <= 20.0\ngini = 0.0001\nsamples = 320557\nvalue = [1, 0, 506803, 7, 0, 12]\nclass = cls2", fillcolor="#39e581"] ;
93 -> 95 ;
96 [label="f7 <= 255.0\ngini = 0.0001\nsamples = 320514\nvalue = [1, 0, 506727, 7, 0, 12]\nclass = cls2", fillcolor="#39e581"] ;
95 -> 96 ;
97 [label="gini = 0.0\nsamples = 1\nvalue = [1, 0, 0, 0, 0, 0]\nclass = cls0", fillcolor="#e58139"] ;
96 -> 97 ;
98 [label="gini = 0.0001\nsamples = 320513\nvalue = [0, 0, 506727, 7, 0, 12]\nclass = cls2", fillcolor="#39e581"] ;
96 -> 98 ;
99 [label="gini = 0.0\nsamples = 43\nvalue = [0, 0, 76, 0, 0, 0]\nclass = cls2", fillcolor="#39e581"] ;
95 -> 99 ;
100 [label="f7 <= 9284.5\ngini = 0.5659\nsamples = 109\nvalue = [22.0, 53.0, 0.0, 0.0, 100.0, 0.0]\nclass = cls4", fillcolor="#ceb3f5"] ;
92 -> 100 ;
101 [label="gini = 0.0\nsamples = 63\nvalue = [0, 0, 0, 0, 100, 0]\nclass = cls4", fillcolor="#8139e5"] ;
100 -> 101 ;
102 [label="f3 <= 1.0\ngini = 0.4146\nsamples = 46\nvalue = [22, 53, 0, 0, 0, 0]\nclass = cls1", fillcolor="#c6f08b"] ;
100 -> 102 ;
103 [label="gini = 0.0\nsamples = 33\nvalue = [0, 53, 0, 0, 0, 0]\nclass = cls1", fillcolor="#9de539"] ;
102 -> 103 ;
104 [label="gini = 0.0\nsamples = 13\nvalue = [22, 0, 0, 0, 0, 0]\nclass = cls0", fillcolor="#e58139"] ;
102 -> 104 ;
}