digraph Tree {
node [shape=box, style="filled, rounded", color="black", fontname="helvetica"] ;
edge [fontname="helvetica"] ;
0 [label="f5 <= 2.5\ngini = 0.5131\nsamples = 743742\nvalue = [83544.0, 25224.0, 800281.0, 86733.0, 125521.0, 55564.0]\nclass = cls2", fillcolor="#80eeae"] ;
1 [label="f9 <= 686.5\ngini = 0.6462\nsamples = 152342\nvalue = [41939.0, 16667.0, 140.0, 2804.0, 124354.0, 54984.0]\nclass = cls4", fillcolor="#d0b5f5"] ;
0 -> 1 [labeldistance=2.5, labelangle=45, headlabel="True"] ;
2 [label="f3 <= 1.0\ngini = 0.7174\nsamples = 88215\nvalue = [38237.0, 16667.0, 140.0, 2449.0, 26974.0, 54967.0]\nclass = cls5", fillcolor="#fbdeef"] ;
1 -> 2 ;
3 [label="f9 <= 117.5\ngini = 0.6551\nsamples = 39947\nvalue = [31572, 14228, 121, 2387, 13300, 1756]\nclass = cls0", fillcolor="#f6d3b9"] ;
2 -> 3 ;
4 [label="gini = 0.4808\nsamples = 24473\nvalue = [24780, 13040, 5, 672, 40, 338]\nclass = cls0", fillcolor="#f3c6a5"] ;
3 -> 4 ;
5 [label="gini = 0.6193\nsamples = 15474\nvalue = [6792.0, 1188.0, 116.0, 1715.0, 13260.0, 1418.0]\nclass = cls4", fillcolor="#d1b7f5"] ;
3 -> 5 ;
6 [label="f9 <= 110.5\ngini = 0.4697\nsamples = 48268\nvalue = [6665.0, 2439.0, 19.0, 62.0, 13674.0, 53211.0]\nclass = cls5", fillcolor="#ef82c1"] ;
2 -> 6 ;
7 [label="gini = 0.5513\nsamples = 13447\nvalue = [3757.0, 1701.0, 2.0, 2.0, 13514.0, 2425.0]\nclass = cls4", fillcolor="#b992f1"] ;
6 -> 7 ;
8 [label="gini = 0.134\nsamples = 34821\nvalue = [2908, 738, 17, 60, 160, 50786]\nclass = cls5", fillcolor="#e748a4"] ;
6 -> 8 ;
9 [label="f8 <= 1192.0\ngini = 0.0774\nsamples = 64127\nvalue = [3702, 0, 0, 355, 97380, 17]\nclass = cls4", fillcolor="#8641e6"] ;
1 -> 9 ;
10 [label="f9 <= 855.5\ngini = 0.0135\nsamples = 61983\nvalue = [660, 0, 0, 6, 97380, 1]\nclass = cls4", fillcolor="#823ae5"] ;
9 -> 10 ;
11 [label="gini = 0.4533\nsamples = 359\nvalue = [184, 0, 0, 6, 375, 0]\nclass = cls4", fillcolor="#c09cf2"] ;
10 -> 11 ;
12 [label="gini = 0.0097\nsamples = 61624\nvalue = [476, 0, 0, 0, 97005, 1]\nclass = cls4", fillcolor="#823ae5"] ;
10 -> 12 ;
13 [label="f9 <= 1442.5\ngini = 0.1923\nsamples = 2144\nvalue = [3042.0, 0.0, 0.0, 349.0, 0.0, 16.0]\nclass = cls0", fillcolor="#e89051"] ;
9 -> 13 ;
14 [label="gini = 0.0104\nsamples = 1931\nvalue = [3042, 0, 0, 0, 0, 16]\nclass = cls0", fillcolor="#e5823a"] ;
13 -> 14 ;
15 [label="gini = 0.0\nsamples = 213\nvalue = [0, 0, 0, 349, 0, 0]\nclass = cls3", fillcolor="#399de5"] ;
13 -> 15 ;
16 [label="f7 <= 255.5\ngini = 0.2591\nsamples = 591400\nvalue = [41605, 8557, 800141, 83929, 1167, 580]\nclass = cls2", fillcolor="#59e995"] ;
0 -> 16 [labeldistance=2.5, labelangle=-45, headlabel="False"] ;
17 [label="f6 <= 22.0\ngini = 0.3004\nsamples = 41819\nvalue = [11574, 77, 102, 54323, 298, 32]\nclass = cls3", fillcolor="#65b3eb"] ;
16 -> 17 ;
18 [label="f4 <= 52.5\ngini = 0.1354\nsamples = 35612\nvalue = [3736.0, 77.0, 75.0, 52455.0, 185.0, 29.0]\nclass = cls3", fillcolor="#48a5e7"] ;
17 -> 18 ;
19 [label="gini = 0.0134\nsamples = 33221\nvalue = [268, 71, 0, 52385, 1, 14]\nclass = cls3", fillcolor="#3a9ee5"] ;
18 -> 19 ;
20 [label="gini = 0.1719\nsamples = 2391\nvalue = [3468, 6, 75, 70, 184, 15]\nclass = cls0", fillcolor="#e88d4c"] ;
18 -> 20 ;
21 [label="f4 <= 69.5\ngini = 0.3306\nsamples = 6207\nvalue = [7838.0, 0.0, 27.0, 1868.0, 113.0, 3.0]\nclass = cls0", fillcolor="#eca16b"] ;
17 -> 21 ;
22 [label="gini = 0.17\nsamples = 1274\nvalue = [139, 0, 0, 1861, 46, 3]\nclass = cls3", fillcolor="#4ca7e8"] ;
21 -> 22 ;
23 [label="gini = 0.0256\nsamples = 4933\nvalue = [7699, 0, 27, 7, 67, 0]\nclass = cls0", fillcolor="#e5833c"] ;
21 -> 23 ;
24 [label="f9 <= 1488.5\ngini = 0.1511\nsamples = 549581\nvalue = [30031.0, 8480.0, 800039.0, 29606.0, 869.0, 548.0]\nclass = cls2", fillcolor="#49e78b"] ;
16 -> 24 ;
25 [label="f4 <= 126.0\ngini = 0.3326\nsamples = 228405\nvalue = [30012, 8419, 292199, 29597, 768, 529]\nclass = cls2", fillcolor="#62ea9b"] ;
24 -> 25 ;
26 [label="gini = 0.5243\nsamples = 13034\nvalue = [12814, 6243, 0, 654, 751, 259]\nclass = cls0", fillcolor="#f3c6a5"] ;
25 -> 26 ;
27 [label="gini = 0.2551\nsamples = 215371\nvalue = [17198.0, 2176.0, 292199.0, 28943.0, 17.0, 270.0]\nclass = cls2", fillcolor="#58e995"] ;
25 -> 27 ;
28 [label="f9 <= 1534.5\ngini = 0.0008\nsamples = 321176\nvalue = [19, 61, 507840, 9, 101, 19]\nclass = cls2", fillcolor="#39e581"] ;
24 -> 28 ;
29 [label="gini = 0.0001\nsamples = 321059\nvalue = [0, 0, 507840, 9, 0, 19]\nclass = cls2", fillcolor="#39e581"] ;
28 -> 29 ;
30 [label="gini = 0.564\nsamples = 117\nvalue = [19.0, 61.0, 0.0, 0.0, 101.0, 0.0]\nclass = cls4", fillcolor="#d5bdf6"] ;
28 -> 30 ;
}